{"learner":{"attributes":{"scikit_learn":"{\"_estimator_type\": \"classifier\"}"},"feature_names":["Age","Gender","YearsAtCompany","MonthlyIncome","EducationLevel","MaritalStatus","NumDependents"],"feature_types":["int","int","int","int","int","int","int"],"gradient_booster":{"model":{"cats":{"enc":[],"feature_segments":[],"sorted_idx":[]},"gbtree_model_param":{"num_parallel_tree":"1","num_trees":"100"},"iteration_indptr":[0,1,2,3,4,5,6,7,8,9,10,11,12,13,14,15,16,17,18,19,20,21,22,23,24,25,26,27,28,29,30,31,32,33,34,35,36,37,38,39,40,41,42,43,44,45,46,47,48,49,50,51,52,53,54,55,56,57,58,59,60,61,62,63,64,65,66,67,68,69,70,71,72,73,74,75,76,77,78,79,80,81,82,83,84,85,86,87,88,89,90,91,92,93,94,95,96,97,98,99,100],"tree_info":[0,0,0,0,0,0,0,0,0,0,0,0,0,0,0,0,0,0,0,0,0,0,0,0,0,0,0,0,0,0,0,0,0,0,0,0,0,0,0,0,0,0,0,0,0,0,0,0,0,0,0,0,0,0,0,0,0,0,0,0,0,0,0,0,0,0,0,0,0,0,0,0,0,0,0,0,0,0,0,0,0,0,0,0,0,0,0,0,0,0,0,0,0,0,0,0,0,0,0,0],"trees":[{"base_weights":[-8.359198E-8,4.9730474E-1,-3.0917946E-2,-5.3580475E-1,8.982111E-1,-7.0085114E-1,1.2635007E-2,-1.0080242E-1,1.7418576E-2,3.9041117E-1,1.1326063E-1,-9.81854E-3,-1.0108328E0,4.499233E-1,-6.1354686E-2,1.3253652E-1,-6.746829E-2,6.600132E-2,-3.621277E-1,-4.0881085E-1,-1.1827954E0,4.0514056E-2,5.9905213E-1,-2.8328966E-2,-6.4499664E-1,-8.072175E-2,1.7418576E-2,-8.072175E-2,2.1555983E-2,-1.377934E-1,-5.80015E-1,-2.0400646E-1,6.586824E-2,1.6080505E-1,8.01277E-1,-6.7690974E-1,-3.4698832E-3,-1.0871102E0,9.579213E-2,2.1555983E-2,-1.11780025E-1,3.2534108E-2,-4.4470895E-2,5.611601E-2,-9.1674834E-2,1.1004796E-1,3.6451142E-2,-7.2002056E-4,-8.668825E-2,2.7021071E-2,-7.574748E-3,-1.6096465E-1,3.9280843E-2,5.3783048E-2,-3.413416E-2],"categories":[],"categories_nodes":[],"categories_segments":[],"categories_sizes":[],"default_left":[0,0,0,0,0,0,0,0,0,0,0,0,0,0,0,0,0,0,0,0,0,0,0,0,0,0,0,0,0,0,0,0,0,0,0,0,0,0,0,0,0,0,0,0,0,0,0,0,0,0,0,0,0,0,0],"id":0,"left_children":[1,3,5,7,9,11,13,-1,-1,15,-1,17,19,21,23,-1,-1,-1,25,27,29,31,33,35,37,-1,-1,-1,-1,-1,39,41,-1,43,45,47,49,51,53,-1,-1,-1,-1,-1,-1,-1,-1,-1,-1,-1,-1,-1,-1,-1,-1],"loss_changes":[3.8745134E0,6.5902195E0,6.9309855E0,1.7680773E0,8.6705875E-1,3.0959787E0,7.266738E0,0E0,0E0,5.8731275E0,0E0,1.5369039E0,5.516796E-1,1.959939E0,3.687251E0,0E0,0E0,0E0,1.1550851E0,1.1068041E0,5.3536415E-2,1.6080877E0,1.9759083E0,2.948077E0,3.4610329E0,0E0,0E0,0E0,0E0,0E0,1.7383837E0,1.1321194E0,0E0,4.2891064E0,1.6896944E0,8.5251164E-1,3.5265198E0,5.6586523E0,1.1013995E0,0E0,0E0,0E0,0E0,0E0,0E0,0E0,0E0,0E0,0E0,0E0,0E0,0E0,0E0,0E0,0E0],"parents":[2147483647,0,0,1,1,2,2,3,3,4,4,5,5,6,6,9,9,11,11,12,12,13,13,14,14,18,18,19,19,20,20,21,21,22,22,23,23,24,24,30,30,31,31,33,33,34,34,35,35,36,36,37,37,38,38],"right_children":[2,4,6,8,10,12,14,-1,-1,16,-1,18,20,22,24,-1,-1,-1,26,28,30,32,34,36,38,-1,-1,-1,-1,-1,40,42,-1,44,46,48,50,52,54,-1,-1,-1,-1,-1,-1,-1,-1,-1,-1,-1,-1,-1,-1,-1,-1],"split_conditions":[8E6,1E0,1E7,9E0,3.8E1,3.4E1,1.6E7,-1.0080242E-1,1.7418576E-2,3.1E1,1.1326063E-1,6E0,2E0,1E0,1.9E1,1.3253652E-1,-6.746829E-2,6.600132E-2,2.6E1,5E1,1E0,4E0,3.1E1,1.7E7,3.1E7,-8.072175E-2,1.7418576E-2,-8.072175E-2,2.1555983E-2,-1.377934E-1,1.1E1,3.1E1,6.586824E-2,2.8E1,1.1E1,7E0,2.9E1,4E0,2E0,2.1555983E-2,-1.11780025E-1,3.2534108E-2,-4.4470895E-2,5.611601E-2,-9.1674834E-2,1.1004796E-1,3.6451142E-2,-7.2002056E-4,-8.668825E-2,2.7021071E-2,-7.574748E-3,-1.6096465E-1,3.9280843E-2,5.3783048E-2,-3.413416E-2],"split_indices":[3,6,3,2,0,0,3,0,0,0,0,2,4,6,2,0,0,0,0,0,1,4,0,3,3,0,0,0,0,0,2,0,0,0,2,2,0,4,6,0,0,0,0,0,0,0,0,0,0,0,0,0,0,0,0],"split_type":[0,0,0,0,0,0,0,0,0,0,0,0,0,0,0,0,0,0,0,0,0,0,0,0,0,0,0,0,0,0,0,0,0,0,0,0,0,0,0,0,0,0,0,0,0,0,0,0,0,0,0,0,0,0,0],"sum_hessian":[2.49991E2,1.3749505E1,2.362415E2,3.749865E0,9.9996395E0,1.3499514E1,2.2274197E2,1.999928E0,1.749937E0,3.999856E0,5.999784E0,4.499838E0,8.999676E0,3.1498865E1,1.9124312E2,1.999928E0,1.999928E0,1.2499549E0,3.249883E0,2.749901E0,6.249775E0,8.749685E0,2.2749182E1,1.8199345E2,9.249667E0,1.499946E0,1.749937E0,1.499946E0,1.2499549E0,3.749865E0,2.4999099E0,6.749757E0,1.999928E0,7.749721E0,1.499946E1,5.749793E0,1.7624365E2,5.499802E0,3.749865E0,1.2499549E0,1.2499549E0,1.999928E0,4.749829E0,5.999784E0,1.749937E0,7.999712E0,6.999748E0,1.499946E0,4.249847E0,3.6248695E1,1.3999496E2,3.999856E0,1.499946E0,1.749937E0,1.999928E0],"tree_param":{"num_deleted":"0","num_feature":"7","num_nodes":"55","size_leaf_vector":"1"}},{"base_weights":[-7.722118E-4,-6.565042E-2,2.0128974E-1,4.5255768E-1,-9.981186E-2,-3.396042E-2,3.9716306E-1,-4.2173108E-1,8.630327E-1,-9.2064613E-1,-7.2300136E-2,6.124229E-1,-3.721147E-1,1.4912128E-1,6.437186E-1,-8.5368715E-2,1.63121E-2,2.6874387E-1,1.065894E0,-1.2439817E-1,-3.297437E-4,-3.9952025E-2,-7.2291946E-1,1.0339248E0,-9.125354E-2,-4.9008128E-1,5.2452415E-2,7.256291E-1,-2.1910726E-1,-4.2585608E-2,7.789894E-1,6.320991E-2,-2.1380452E-2,3.257062E-2,1.2398081E-1,3.5299445E-3,-4.256416E-1,-1.1120899E0,3.2622036E-2,1.1723366E0,4.495682E-2,4.9343104E-3,-5.908049E-1,1.0527425E-1,1.0808764E0,-4.067452E-1,2.4620937E-1,4.0989676E-1,9.795186E-1,-2.6456914E-3,6.514508E-2,1.5764337E-2,-9.3136914E-2,2.1334423E-2,-1.4876263E-1,4.2502087E-2,1.4860512E-1,6.2076222E-2,-5.0082415E-2,-8.687854E-2,-3.0091936E-2,-2.2744352E-2,3.6283854E-2,1.3073526E-1,3.766763E-2,-1.5850844E-2,-7.77975E-2,8.015338E-2,-4.0736753E-2,8.645024E-2,-2.91355E-2,4.0905256E-2,1.2675609E-1],"categories":[],"categories_nodes":[],"categories_segments":[],"categories_sizes":[],"default_left":[0,0,0,0,0,0,0,0,0,0,0,0,0,0,0,0,0,0,0,0,0,0,0,0,0,0,0,0,0,0,0,0,0,0,0,0,0,0,0,0,0,0,0,0,0,0,0,0,0,0,0,0,0,0,0,0,0,0,0,0,0,0,0,0,0,0,0,0,0,0,0,0,0],"id":1,"left_children":[1,3,5,7,9,11,13,15,17,19,21,23,25,27,29,-1,-1,31,33,-1,-1,35,37,39,-1,41,-1,43,45,-1,47,-1,-1,-1,-1,49,51,53,-1,55,-1,57,59,61,63,65,67,69,71,-1,-1,-1,-1,-1,-1,-1,-1,-1,-1,-1,-1,-1,-1,-1,-1,-1,-1,-1,-1,-1,-1,-1,-1],"loss_changes":[3.3015983E0,3.4198418E0,2.834063E0,4.6597776E0,3.990613E0,6.5079556E0,1.9515052E0,1.275125E0,7.35168E-1,1.6987762E0,3.6525075E0,7.5294995E0,2.3180869E0,3.9782667E0,2.7173624E0,0E0,0E0,7.477087E-1,3.660431E-1,0E0,0E0,2.8137918E0,3.72156E0,1.6014671E-1,0E0,8.8726616E-1,0E0,1.4827065E0,1.1257727E0,0E0,7.0803833E-1,0E0,0E0,0E0,0E0,2.9645162E0,5.1609898E0,3.417017E0,0E0,8.330145E-1,0E0,1.5537838E0,9.2685366E-1,4.0352485E-1,2.2499514E-1,6.8286026E-1,1.7777951E0,2.4824715E0,9.593725E-1,0E0,0E0,0E0,0E0,0E0,0E0,0E0,0E0,0E0,0E0,0E0,0E0,0E0,0E0,0E0,0E0,0E0,0E0,0E0,0E0,0E0,0E0,0E0,0E0],"parents":[2147483647,0,0,1,1,2,2,3,3,4,4,5,5,6,6,7,7,8,8,9,9,10,10,11,11,12,12,13,13,14,14,17,17,18,18,21,21,22,22,23,23,25,25,27,27,28,28,30,30,35,35,36,36,37,37,39,39,41,41,42,42,43,43,44,44,45,45,46,46,47,47,48,48],"right_children":[2,4,6,8,10,12,14,16,18,20,22,24,26,28,30,-1,-1,32,34,-1,-1,36,38,40,-1,42,-1,44,46,-1,48,-1,-1,-1,-1,50,52,54,-1,56,-1,58,60,62,64,66,68,70,72,-1,-1,-1,-1,-1,-1,-1,-1,-1,-1,-1,-1,-1,-1,-1,-1,-1,-1,-1,-1,-1,-1,-1,-1],"split_conditions":[4E0,8E6,1E0,1E0,9E6,7E0,2E0,8E0,3.8E1,1E0,1.9E1,5.2E1,5.5E1,3.2E1,2.3E1,-8.5368715E-2,1.63121E-2,1E0,2E0,-1.2439817E-1,-3.297437E-4,4.7E7,3.1E7,4.4E1,-9.125354E-2,1.4E7,5.2452415E-2,2.3E7,1.4E1,-4.2585608E-2,8E0,6.320991E-2,-2.1380452E-2,3.257062E-2,1.2398081E-1,4.6E7,1E1,1.6E7,3.2622036E-2,2.3E7,4.495682E-2,1.4E1,3E7,1E1,4E7,1E1,2.3E7,6E0,2.2E7,-2.6456914E-3,6.514508E-2,1.5764337E-2,-9.3136914E-2,2.1334423E-2,-1.4876263E-1,4.2502087E-2,1.4860512E-1,6.2076222E-2,-5.0082415E-2,-8.687854E-2,-3.0091936E-2,-2.2744352E-2,3.6283854E-2,1.3073526E-1,3.766763E-2,-1.5850844E-2,-7.77975E-2,8.015338E-2,-4.0736753E-2,8.645024E-2,-2.91355E-2,4.0905256E-2,1.2675609E-1],"split_indices":[4,3,1,6,3,2,6,2,0,1,2,0,0,0,0,0,0,1,6,0,0,3,3,0,0,3,0,3,2,0,2,0,0,0,0,3,2,3,0,3,0,2,3,2,3,2,3,2,3,0,0,0,0,0,0,0,0,0,0,0,0,0,0,0,0,0,0,0,0,0,0,0,0],"split_type":[0,0,0,0,0,0,0,0,0,0,0,0,0,0,0,0,0,0,0,0,0,0,0,0,0,0,0,0,0,0,0,0,0,0,0,0,0,0,0,0,0,0,0,0,0,0,0,0,0,0,0,0,0,0,0,0,0,0,0,0,0,0,0,0,0,0,0,0,0,0,0,0,0],"sum_hessian":[2.4984134E2,1.8962991E2,6.021142E1,1.0970257E1,1.7865967E2,2.773155E1,3.2479866E1,3.496176E0,7.4740806E0,4.7411084E0,1.7391855E2,9.246243E0,1.8485308E1,1.699113E1,1.5488735E1,1.7465545E0,1.7496215E0,2.4936423E0,4.980438E0,3.2422564E0,1.4988518E0,1.666922E2,7.2263556E0,7.496258E0,1.7499847E0,1.6736755E1,1.748553E0,6.2443023E0,1.0746829E1,1.4977753E0,1.399096E1,1.2457122E0,1.24793E0,1.4941316E0,3.486307E0,1.5069406E2,1.5998137E1,5.2273197E0,1.9990361E0,5.2471967E0,2.2490616E0,2.9905298E0,1.3746225E1,2.7457845E0,3.4985175E0,7.748242E0,2.9985876E0,5.997E0,7.9939594E0,1.4494493E2,5.7491264E0,7.749023E0,8.249114E0,1.2494283E0,3.9778914E0,2.2476807E0,2.9995158E0,1.245987E0,1.7445428E0,5.997774E0,7.7484508E0,1.2491262E0,1.4966583E0,1.9990885E0,1.4994291E0,5.4984674E0,2.2497745E0,1.4987581E0,1.4998296E0,3.4971066E0,2.499894E0,3.4940753E0,4.499884E0],"tree_param":{"num_deleted":"0","num_feature":"7","num_nodes":"73","size_leaf_vector":"1"}},{"base_weights":[4.887617E-4,-5.9710026E-2,1.8811408E-1,4.2030767E-1,-9.122517E-2,-2.7361332E-2,3.6740932E-1,-3.9590544E-1,8.049455E-1,-6.218596E-1,-5.4735746E-2,5.670539E-1,-3.37932E-1,-2.9120746E-1,4.4169536E-1,-8.023872E-2,1.5277256E-2,2.5417042E-1,9.930917E-1,2.4516681E-2,-7.515466E-1,3.0111212E-1,-1.1485953E-1,9.614293E-1,-8.554961E-2,-4.6079552E-1,4.1803446E-2,-8.0440275E-2,3.393853E-2,1.2562314E-1,3.4055972E-1,5.9808295E-2,-2.0196823E-2,3.0663818E-2,1.1542757E-1,-3.281457E-1,-9.017922E-1,-5.7757128E-2,5.810968E-1,-7.738905E-2,-8.5441077E-1,3.165959E-2,1.0539018E0,1.4184234E-1,-5.8421415E-1,1.647644E-1,7.0347095E-1,-5.3854745E-2,3.4679912E-3,-2.998178E-2,-1.08352385E-1,-3.382085E-2,6.308848E-2,-1.1316227E-2,8.956033E-2,-8.485737E-2,-5.1317825E-3,-1.3878068E-1,3.0456936E-2,1.2852508E-1,3.9089903E-2,5.875453E-2,-3.1628937E-2,-7.610694E-2,-2.2923922E-2,-5.8379867E-3,6.279587E-2,1.0274025E-1,-1.849402E-2],"categories":[],"categories_nodes":[],"categories_segments":[],"categories_sizes":[],"default_left":[0,0,0,0,0,0,0,0,0,0,0,0,0,0,0,0,0,0,0,0,0,0,0,0,0,0,0,0,0,0,0,0,0,0,0,0,0,0,0,0,0,0,0,0,0,0,0,0,0,0,0,0,0,0,0,0,0,0,0,0,0,0,0,0,0,0,0,0,0],"id":2,"left_children":[1,3,5,7,9,11,13,15,17,19,21,23,25,27,29,-1,-1,31,33,-1,35,37,39,41,-1,43,-1,-1,-1,-1,45,-1,-1,-1,-1,47,49,51,53,55,57,-1,59,61,63,65,67,-1,-1,-1,-1,-1,-1,-1,-1,-1,-1,-1,-1,-1,-1,-1,-1,-1,-1,-1,-1,-1,-1],"loss_changes":[2.8412979E0,2.9195604E0,2.370769E0,4.0585117E0,3.4424262E0,5.4867597E0,1.7638283E0,1.1230578E0,6.2078524E-1,1.4723539E0,3.6522553E0,6.5543213E0,2.0006738E0,1.5643227E0,2.0790973E0,0E0,0E0,6.6820365E-1,3.0294514E-1,0E0,3.5365105E-1,2.5169847E0,3.962387E0,1.7140198E-1,0E0,1.3636734E0,0E0,0E0,0E0,0E0,1.6986659E0,0E0,0E0,0E0,0E0,3.428476E-1,4.370575E-1,2.4810505E0,3.1526456E0,2.7604628E0,4.694911E0,0E0,5.679693E-1,9.4784737E-1,7.3511934E-1,2.1520815E0,2.7730818E0,0E0,0E0,0E0,0E0,0E0,0E0,0E0,0E0,0E0,0E0,0E0,0E0,0E0,0E0,0E0,0E0,0E0,0E0,0E0,0E0,0E0,0E0],"parents":[2147483647,0,0,1,1,2,2,3,3,4,4,5,5,6,6,7,7,8,8,9,9,10,10,11,11,12,12,13,13,14,14,17,17,18,18,20,20,21,21,22,22,23,23,25,25,30,30,35,35,36,36,37,37,38,38,39,39,40,40,42,42,43,43,44,44,45,45,46,46],"right_children":[2,4,6,8,10,12,14,16,18,20,22,24,26,28,30,-1,-1,32,34,-1,36,38,40,42,-1,44,-1,-1,-1,-1,46,-1,-1,-1,-1,48,50,52,54,56,58,-1,60,62,64,66,68,-1,-1,-1,-1,-1,-1,-1,-1,-1,-1,-1,-1,-1,-1,-1,-1,-1,-1,-1,-1,-1,-1],"split_conditions":[4E0,8E6,1E0,1E0,1E7,7E0,1E7,8E0,3.8E1,1E0,1.6E7,5.2E1,5.4E1,2E0,1.3E7,-8.023872E-2,1.5277256E-2,1E0,2E0,2.4516681E-2,3.4E1,2E0,1.9E1,2.6E1,-8.554961E-2,1.4E7,4.1803446E-2,-8.0440275E-2,3.393853E-2,1.2562314E-1,1.4E1,5.9808295E-2,-2.0196823E-2,3.0663818E-2,1.1542757E-1,1.2E1,2E0,1.5E7,3.1E1,1.7E7,3.1E7,3.165959E-2,5E0,1.4E1,3.5E7,3.7E7,3.9E7,-5.3854745E-2,3.4679912E-3,-2.998178E-2,-1.08352385E-1,-3.382085E-2,6.308848E-2,-1.1316227E-2,8.956033E-2,-8.485737E-2,-5.1317825E-3,-1.3878068E-1,3.0456936E-2,1.2852508E-1,3.9089903E-2,5.875453E-2,-3.1628937E-2,-7.610694E-2,-2.2923922E-2,-5.8379867E-3,6.279587E-2,1.0274025E-1,-1.849402E-2],"split_indices":[4,3,1,6,3,2,3,2,0,2,3,0,0,6,3,0,0,1,6,0,0,6,2,0,0,3,0,0,0,0,2,0,0,0,0,2,4,3,0,3,3,0,2,2,3,3,3,0,0,0,0,0,0,0,0,0,0,0,0,0,0,0,0,0,0,0,0,0,0],"split_type":[0,0,0,0,0,0,0,0,0,0,0,0,0,0,0,0,0,0,0,0,0,0,0,0,0,0,0,0,0,0,0,0,0,0,0,0,0,0,0,0,0,0,0,0,0,0,0,0,0,0,0,0,0,0,0,0,0,0,0,0,0,0,0,0,0,0,0,0,0],"sum_hessian":[2.495632E2,1.8945813E2,6.0105076E1,1.0912316E1,1.785458E2,2.7683132E1,3.2421944E1,3.4858801E0,7.4264364E0,1.0455676E1,1.6809013E2,9.216812E0,1.846632E1,2.9902694E0,2.9431675E1,1.736795E0,1.7490853E0,2.4895375E0,4.9368987E0,1.244576E0,9.211101E0,2.37161E1,1.4437402E2,7.4700356E0,1.746777E0,1.6220531E1,2.2457883E0,1.496634E0,1.4936354E0,1.9892454E0,2.744243E1,1.2419581E0,1.2475795E0,1.4906971E0,3.4462016E0,3.2464564E0,5.9646444E0,1.07416935E1,1.2974408E1,1.3846323E2,5.9108047E0,1.4917026E0,5.978333E0,2.7318707E0,1.3488661E1,1.9466705E1,7.975725E0,1.7483039E0,1.4981525E0,1.9975781E0,3.967066E0,7.9947042E0,2.7469893E0,4.2446723E0,8.729735E0,3.4962473E0,1.3496698E2,3.9126518E0,1.9981529E0,3.7361174E0,2.2422156E0,1.2415355E0,1.490335E0,8.239551E0,5.24911E0,1.3727453E1,5.739251E0,5.7300067E0,2.2457187E0],"tree_param":{"num_deleted":"0","num_feature":"7","num_nodes":"69","size_leaf_vector":"1"}},{"base_weights":[1.123786E-3,2.9916637E-2,-3.41309E-1,-3.4686156E-2,2.420439E-1,1.7814928E-1,-7.592701E-1,8.636159E-2,-2.2314067E-1,6.013754E-1,2.7186625E-2,-8.19751E-2,4.6786994E-1,3.3941947E-2,-9.967842E-1,4.0031204E-1,1.6453343E-2,-4.9172196E-1,2.1782275E-2,-8.410738E-2,8.4720427E-1,7.3517334E-1,-1.84222E-1,8.261915E-1,-1.5867984E-1,6.868591E-2,-6.340701E-2,-3.6069427E-2,-1.0815187E-1,-1.09619126E-1,6.1359775E-1,1.9929422E-1,-1.6833332E-1,-6.8150055E-1,7.3831594E-3,-3.4010532E-1,3.5173896E-1,7.985724E-2,-5.309805E-1,-1.4222962E-3,9.440884E-1,9.9299324E-1,-4.785064E-3,-3.9680773E-1,5.7235026E-1,1.17769755E-1,-3.221994E-3,3.7005246E-2,-6.750534E-2,-5.7146467E-2,2.979222E-2,-2.4781395E-2,7.154742E-2,6.204414E-4,6.796753E-2,8.796573E-3,-4.3047994E-2,2.5251433E-2,-8.252495E-2,5.7325095E-2,-6.379914E-2,-1.2847421E-2,-1.0194486E-1,4.8215486E-2,-5.7322413E-2,-1.00937955E-1,1.8395144E-2,3.3939406E-2,1.102726E-1,1.2023907E-1,4.2971093E-2,-7.17808E-2,4.050931E-2,1.0043645E-1,-6.888817E-2],"categories":[],"categories_nodes":[],"categories_segments":[],"categories_sizes":[],"default_left":[0,0,0,0,0,0,0,0,0,0,0,0,0,0,0,0,0,0,0,0,0,0,0,0,0,0,0,0,0,0,0,0,0,0,0,0,0,0,0,0,0,0,0,0,0,0,0,0,0,0,0,0,0,0,0,0,0,0,0,0,0,0,0,0,0,0,0,0,0,0,0,0,0,0,0],"id":3,"left_children":[1,3,5,7,9,11,13,15,17,19,21,-1,23,25,27,29,31,33,35,37,39,41,43,45,47,-1,-1,-1,-1,49,51,53,55,57,59,61,63,-1,65,-1,67,69,-1,71,73,-1,-1,-1,-1,-1,-1,-1,-1,-1,-1,-1,-1,-1,-1,-1,-1,-1,-1,-1,-1,-1,-1,-1,-1,-1,-1,-1,-1,-1,-1],"loss_changes":[2.4757802E0,3.1821253E0,4.3638105E0,4.0889487E0,4.167425E0,3.1282804E0,2.10293E0,2.3933623E0,4.6188784E0,3.480297E0,5.3680754E0,0E0,1.9258496E0,1.9611117E0,6.721783E-2,2.2285218E0,3.0904462E0,3.1738596E0,4.609044E0,2.889188E0,1.2636919E0,1.7108417E0,4.6856475E0,1.6211064E0,1.2729279E0,0E0,0E0,0E0,0E0,1.4329944E0,1.4201989E0,4.2566276E0,3.0976763E0,3.4641733E0,4.092807E0,2.5200837E0,2.7080371E0,0E0,1.8101987E0,0E0,9.1893196E-1,2.1983433E-1,0E0,6.013236E0,4.22812E0,0E0,0E0,0E0,0E0,0E0,0E0,0E0,0E0,0E0,0E0,0E0,0E0,0E0,0E0,0E0,0E0,0E0,0E0,0E0,0E0,0E0,0E0,0E0,0E0,0E0,0E0,0E0,0E0,0E0,0E0],"parents":[2147483647,0,0,1,1,2,2,3,3,4,4,5,5,6,6,7,7,8,8,9,9,10,10,12,12,13,13,14,14,15,15,16,16,17,17,18,18,19,19,20,20,21,21,22,22,23,23,24,24,29,29,30,30,31,31,32,32,33,33,34,34,35,35,36,36,38,38,40,40,41,41,43,43,44,44],"right_children":[2,4,6,8,10,12,14,16,18,20,22,-1,24,26,28,30,32,34,36,38,40,42,44,46,48,-1,-1,-1,-1,50,52,54,56,58,60,62,64,-1,66,-1,68,70,-1,72,74,-1,-1,-1,-1,-1,-1,-1,-1,-1,-1,-1,-1,-1,-1,-1,-1,-1,-1,-1,-1,-1,-1,-1,-1,-1,-1,-1,-1,-1,-1],"split_conditions":[4.7E7,3.7E7,1E1,2.5E7,4.1E7,1E0,2.9E1,3E0,9E0,2E0,2.8E1,-8.19751E-2,1E0,2E0,1.1E1,2E0,1E0,4E0,1E0,1E0,2.3E1,4E0,5.3E1,3E0,4.4E1,6.868591E-2,-6.340701E-2,-3.6069427E-2,-1.0815187E-1,4.5E1,2.2E1,4E0,1.6E7,1E0,4.3E1,3E0,1.9E1,7.985724E-2,4.3E1,-1.4222962E-3,1E0,2.4E1,-4.785064E-3,3E0,5.8E1,1.17769755E-1,-3.221994E-3,3.7005246E-2,-6.750534E-2,-5.7146467E-2,2.979222E-2,-2.4781395E-2,7.154742E-2,6.204414E-4,6.796753E-2,8.796573E-3,-4.3047994E-2,2.5251433E-2,-8.252495E-2,5.7325095E-2,-6.379914E-2,-1.2847421E-2,-1.0194486E-1,4.8215486E-2,-5.7322413E-2,-1.00937955E-1,1.8395144E-2,3.3939406E-2,1.102726E-1,1.2023907E-1,4.2971093E-2,-7.17808E-2,4.050931E-2,1.0043645E-1,-6.888817E-2],"split_indices":[3,3,2,3,3,6,0,2,2,4,0,0,1,6,2,4,5,4,1,6,0,4,0,4,0,0,0,0,0,0,0,4,3,2,0,6,2,0,0,0,6,0,0,6,0,0,0,0,0,0,0,0,0,0,0,0,0,0,0,0,0,0,0,0,0,0,0,0,0,0,0,0,0,0,0],"split_type":[0,0,0,0,0,0,0,0,0,0,0,0,0,0,0,0,0,0,0,0,0,0,0,0,0,0,0,0,0,0,0,0,0,0,0,0,0,0,0,0,0,0,0,0,0,0,0,0,0,0,0,0,0,0,0,0,0,0,0,0,0,0,0,0,0,0,0,0,0,0,0,0,0,0,0],"sum_hessian":[2.4906749E2,2.3059126E2,1.847622E1,1.774008E2,5.319046E1,8.493692E0,9.982527E0,1.08348404E2,6.905241E1,1.9230328E1,3.3960133E1,1.4994845E0,6.994208E0,2.4978151E0,7.4847116E0,1.887164E1,8.947676E1,3.2454884E1,3.6597523E1,5.2496834E0,1.3980645E1,7.2392144E0,2.6720917E1,4.2468266E0,2.7473814E0,1.2489114E0,1.2489036E0,1.4977876E0,5.9869237E0,5.708823E0,1.3162816E1,4.493571E1,4.4541054E1,2.324921E1,9.205672E0,1.7439545E1,1.915798E1,1.4999354E0,3.7497482E0,1.4996827E0,1.2480962E1,5.244311E0,1.9949034E0,2.1230871E1,5.490045E0,2.7491448E0,1.4976816E0,1.4974523E0,1.2499292E0,2.487567E0,3.221256E0,1.240588E0,1.1922229E1,3.2774765E1,1.2160945E1,2.2857685E1,2.1683369E1,2.9999914E0,2.0249218E1,4.9645147E0,4.2411575E0,1.4203836E1,3.2357078E0,1.7210152E1,1.947828E0,1.9997531E0,1.749995E0,3.2462704E0,9.234692E0,2.9959621E0,2.248349E0,1.5236557E1,5.994315E0,4.2410183E0,1.2490268E0],"tree_param":{"num_deleted":"0","num_feature":"7","num_nodes":"75","size_leaf_vector":"1"}},{"base_weights":[1.1376191E-3,3.8476512E-1,-2.248181E-2,-4.5518425E-1,7.1582943E-1,-9.106629E-1,1.3899308E-3,-8.527737E-2,1.404801E-2,1.19302236E-1,4.744265E-1,-1.1543646E-1,-1.8571988E-2,2.170702E-1,-4.4243034E-2,-6.499346E-2,8.9732766E-1,-3.160543E-1,3.6242464E-1,-1.8409278E-2,-5.1144516E-1,1.007429E0,3.5689354E-2,3.4848824E-1,-7.344581E-1,3.0874075E-2,4.8379445E-1,9.745064E-2,-1.2614144E-1,-9.09638E-1,-1.1022198E-2,4.4405214E-2,1.2092119E-1,6.494282E-2,-2.0745574E-2,3.2550797E-3,-9.984866E-2,-1.7626636E-2,5.593982E-2,1.2716556E-2,6.496691E-2,3.870869E-2,-5.3725945E-4,4.0793072E-2,-1.7146755E-2,-1.2519835E-1,1.5857598E-2,2.6236577E-2,-4.406091E-2],"categories":[],"categories_nodes":[],"categories_segments":[],"categories_sizes":[],"default_left":[0,0,0,0,0,0,0,0,0,0,0,0,0,0,0,0,0,0,0,0,0,0,0,0,0,0,0,0,0,0,0,0,0,0,0,0,0,0,0,0,0,0,0,0,0,0,0,0,0],"id":4,"left_children":[1,3,5,7,9,11,13,-1,-1,-1,15,-1,-1,17,19,-1,21,23,25,27,29,31,-1,33,35,37,39,41,43,45,47,-1,-1,-1,-1,-1,-1,-1,-1,-1,-1,-1,-1,-1,-1,-1,-1,-1,-1],"loss_changes":[2.2708135E0,4.367631E0,5.0076427E0,1.2377555E0,6.79759E-1,8.777342E-1,2.2825563E0,0E0,0E0,0E0,4.787319E0,0E0,0E0,3.2528481E0,2.3012185E0,0E0,4.775238E-2,2.816869E0,1.2843409E0,2.2895908E0,1.9813755E0,4.7123432E-2,0E0,8.435513E-1,1.2422447E0,1.1627843E0,1.3115406E0,2.6369104E0,2.3690786E0,2.2292824E0,7.545745E-1,0E0,0E0,0E0,0E0,0E0,0E0,0E0,0E0,0E0,0E0,0E0,0E0,0E0,0E0,0E0,0E0,0E0,0E0],"parents":[2147483647,0,0,1,1,2,2,3,3,4,4,5,5,6,6,10,10,13,13,14,14,16,16,17,17,18,18,19,19,20,20,21,21,23,23,24,24,25,25,26,26,27,27,28,28,29,29,30,30],"right_children":[2,4,6,8,10,12,14,-1,-1,-1,16,-1,-1,18,20,-1,22,24,26,28,30,32,-1,34,36,38,40,42,44,46,48,-1,-1,-1,-1,-1,-1,-1,-1,-1,-1,-1,-1,-1,-1,-1,-1,-1,-1],"split_conditions":[8E6,1E0,9E6,9E0,3.1E1,1E0,1.6E7,-8.527737E-2,1.404801E-2,1.19302236E-1,3.8E1,-1.1543646E-1,-1.8571988E-2,1E7,1.9E1,-6.499346E-2,1.5E1,9E0,1E0,1E0,3E7,4E0,3.5689354E-2,1E0,2E0,4E0,3.1E1,2.5E7,1E0,4E0,4.1E7,4.4405214E-2,1.2092119E-1,6.494282E-2,-2.0745574E-2,3.2550797E-3,-9.984866E-2,-1.7626636E-2,5.593982E-2,1.2716556E-2,6.496691E-2,3.870869E-2,-5.3725945E-4,4.0793072E-2,-1.7146755E-2,-1.2519835E-1,1.5857598E-2,2.6236577E-2,-4.406091E-2],"split_indices":[3,6,3,2,0,1,3,0,0,0,0,0,0,3,2,0,2,2,6,5,3,2,0,1,4,4,0,3,2,4,3,0,0,0,0,0,0,0,0,0,0,0,0,0,0,0,0,0,0],"split_type":[0,0,0,0,0,0,0,0,0,0,0,0,0,0,0,0,0,0,0,0,0,0,0,0,0,0,0,0,0,0,0,0,0,0,0,0,0,0,0,0,0,0,0,0,0,0,0,0,0],"sum_hessian":[2.486576E2,1.3534797E1,2.3512279E2,3.7205102E0,9.814287E0,5.181717E0,2.2994107E2,1.9723722E0,1.7481382E0,1.9727062E0,7.841581E0,3.4347246E0,1.7469921E0,3.94984E1,1.9044267E2,1.9965459E0,5.8450346E0,8.210378E0,3.1288025E1,1.8144893E2,8.993743E0,4.1379166E0,1.707118E0,3.2366962E0,4.973681E0,8.720442E0,2.2567583E1,8.747254E1,9.397639E1,4.55307E0,4.440673E0,1.9352765E0,2.2026403E0,1.9908621E0,1.2458342E0,1.4981719E0,3.475509E0,6.7438636E0,1.9765779E0,7.7251706E0,1.4842413E1,2.2193235E1,6.5279305E1,6.7259045E0,8.725048E1,3.31775E0,1.2353203E0,2.9515648E0,1.4891078E0],"tree_param":{"num_deleted":"0","num_feature":"7","num_nodes":"49","size_leaf_vector":"1"}},{"base_weights":[1.20628E-3,2.7235836E-2,-3.0839399E-1,-3.5151124E-2,2.3169622E-1,1.6493157E-1,-6.9053483E-1,6.878949E-2,-1.9647804E-1,5.551811E-1,3.796182E-2,-4.5367178E-1,6.0159284E-1,-9.727605E-1,-1.2823323E-2,-4.6940902E-1,1.0284512E-1,-4.418174E-1,2.7167514E-2,-7.111415E-2,7.797179E-1,6.918857E-1,-1.5753382E-1,1.9764218E-2,-7.643408E-2,9.350562E-1,-4.338899E-3,-4.0571386E-1,-1.2452614E-1,4.187502E-2,-5.8233775E-2,1.3914789E-2,-8.04949E-1,3.3588445E-1,1.9426022E-2,-6.134237E-1,9.798983E-3,-3.009376E-1,3.2570586E-1,7.5661495E-2,-4.9184656E-1,2.8602335E-1,9.633562E-1,9.311545E-1,-3.5989003E-3,1.0481253E-1,-6.930978E-1,1.1276777E-1,3.680494E-2,-8.422801E-2,3.097924E-2,-1.1533914E-1,-2.3691937E-2,-1.124568E-2,4.8456397E-2,2.2716224E-2,-1.6936174E-2,2.0829055E-2,-7.393845E-2,5.308887E-2,-5.844135E-2,-1.0664469E-1,-1.1485051E-2,6.472813E-2,-3.3560786E-3,-9.376555E-2,1.7259313E-2,7.4049644E-2,-7.0301676E-3,3.8059246E-2,1.20065264E-1,1.1238565E-1,4.0830076E-2,-6.447404E-2,2.2754E-2,-1.078369E-1,2.4723204E-2],"categories":[],"categories_nodes":[],"categories_segments":[],"categories_sizes":[],"default_left":[0,0,0,0,0,0,0,0,0,0,0,0,0,0,0,0,0,0,0,0,0,0,0,0,0,0,0,0,0,0,0,0,0,0,0,0,0,0,0,0,0,0,0,0,0,0,0,0,0,0,0,0,0,0,0,0,0,0,0,0,0,0,0,0,0,0,0,0,0,0,0,0,0,0,0,0,0],"id":5,"left_children":[1,3,5,7,9,11,13,15,17,19,21,23,25,27,29,31,33,35,37,39,41,43,45,-1,-1,47,-1,49,-1,-1,-1,-1,51,53,55,57,59,61,63,-1,65,67,69,71,-1,73,75,-1,-1,-1,-1,-1,-1,-1,-1,-1,-1,-1,-1,-1,-1,-1,-1,-1,-1,-1,-1,-1,-1,-1,-1,-1,-1,-1,-1,-1,-1],"loss_changes":[2.016352E0,2.95163E0,3.6237926E0,2.992888E0,3.3682222E0,2.8324397E0,2.0779743E0,2.042407E0,3.8462145E0,2.8938336E0,4.570286E0,1.0597824E0,1.3277032E0,6.8501997E-1,1.2827139E0,1.4708152E0,1.9985845E0,2.5930758E0,3.771012E0,2.546277E0,1.0790167E0,1.4646044E0,3.9618354E0,0E0,0E0,2.065754E-2,0E0,1.5052185E0,0E0,0E0,0E0,0E0,6.048944E-1,1.8627913E0,3.058902E0,2.65936E0,3.461117E0,2.496358E0,2.3455002E0,0E0,1.5674057E0,9.383638E-1,9.906149E-1,1.6797829E-1,0E0,1.9357373E0,3.6113605E0,0E0,0E0,0E0,0E0,0E0,0E0,0E0,0E0,0E0,0E0,0E0,0E0,0E0,0E0,0E0,0E0,0E0,0E0,0E0,0E0,0E0,0E0,0E0,0E0,0E0,0E0,0E0,0E0,0E0,0E0],"parents":[2147483647,0,0,1,1,2,2,3,3,4,4,5,5,6,6,7,7,8,8,9,9,10,10,11,11,12,12,13,13,14,14,15,15,16,16,17,17,18,18,19,19,20,20,21,21,22,22,25,25,27,27,32,32,33,33,34,34,35,35,36,36,37,37,38,38,40,40,41,41,42,42,43,43,45,45,46,46],"right_children":[2,4,6,8,10,12,14,16,18,20,22,24,26,28,30,32,34,36,38,40,42,44,46,-1,-1,48,-1,50,-1,-1,-1,-1,52,54,56,58,60,62,64,-1,66,68,70,72,-1,74,76,-1,-1,-1,-1,-1,-1,-1,-1,-1,-1,-1,-1,-1,-1,-1,-1,-1,-1,-1,-1,-1,-1,-1,-1,-1,-1,-1,-1,-1,-1],"split_conditions":[4.7E7,3.7E7,1E1,2.5E7,4.1E7,2E0,4.9E7,2.2E1,9E0,2E0,2.8E1,4.8E7,3E0,3.4E1,3E0,1E0,5E0,4E0,1E0,1E0,3.1E1,4E0,1.2E1,1.9764218E-2,-7.643408E-2,3.6E1,-4.338899E-3,1E0,-1.2452614E-1,4.187502E-2,-5.8233775E-2,1.3914789E-2,3E0,1E7,1E0,1E0,4.3E1,2.7E7,3E7,7.5661495E-2,4.3E1,4E0,3E0,2.4E1,-3.5989003E-3,4.2E7,3E0,1.1276777E-1,3.680494E-2,-8.422801E-2,3.097924E-2,-1.1533914E-1,-2.3691937E-2,-1.124568E-2,4.8456397E-2,2.2716224E-2,-1.6936174E-2,2.0829055E-2,-7.393845E-2,5.308887E-2,-5.844135E-2,-1.0664469E-1,-1.1485051E-2,6.472813E-2,-3.3560786E-3,-9.376555E-2,1.7259313E-2,7.4049644E-2,-7.0301676E-3,3.8059246E-2,1.20065264E-1,1.1238565E-1,4.0830076E-2,-6.447404E-2,2.2754E-2,-1.078369E-1,2.4723204E-2],"split_indices":[3,3,2,3,3,6,3,0,2,4,0,3,4,0,6,1,2,4,1,6,0,4,2,0,0,0,0,1,0,0,0,0,4,3,5,2,0,3,3,0,0,2,4,0,0,3,6,0,0,0,0,0,0,0,0,0,0,0,0,0,0,0,0,0,0,0,0,0,0,0,0,0,0,0,0,0,0],"split_type":[0,0,0,0,0,0,0,0,0,0,0,0,0,0,0,0,0,0,0,0,0,0,0,0,0,0,0,0,0,0,0,0,0,0,0,0,0,0,0,0,0,0,0,0,0,0,0,0,0,0,0,0,0,0,0,0,0,0,0,0,0,0,0,0,0,0,0,0,0,0,0,0,0,0,0,0,0],"sum_hessian":[2.4816405E2,2.2975914E2,1.8404907E1,1.7667761E2,5.308153E1,8.475465E0,9.929441E0,1.0779832E2,6.88793E1,1.9183878E1,3.389765E1,3.4909697E0,4.984495E0,6.7027802E0,3.2266614E0,5.6544566E0,1.0214386E2,3.238138E1,3.6497925E1,5.242997E0,1.3940882E1,7.217227E0,2.6680426E1,1.24489E0,2.24608E0,2.9892676E0,1.9952276E0,2.9834268E0,3.7193532E0,1.9862335E0,1.240428E0,2.2176623E0,3.436794E0,2.6127548E1,7.601631E1,2.3205435E1,9.175942E0,1.7384098E1,1.9113827E1,1.4978566E0,3.7451406E0,4.4730453E0,9.467836E0,5.221518E0,1.9957093E0,1.844797E1,8.232455E0,1.4931833E0,1.4960845E0,1.7428474E0,1.2405792E0,1.4914138E0,1.9453801E0,6.5673647E0,1.9560183E1,3.6095104E1,3.9921207E1,2.997488E0,2.0207947E1,4.945551E0,4.230392E0,2.4743643E0,1.4909734E1,9.662954E0,9.450871E0,1.9952326E0,1.7499079E0,1.4919703E0,2.9810753E0,3.4931247E0,5.9747114E0,2.9754314E0,2.2460864E0,1.9971325E0,1.6450838E1,5.73565E0,2.4968054E0],"tree_param":{"num_deleted":"0","num_feature":"7","num_nodes":"77","size_leaf_vector":"1"}},{"base_weights":[8.6704793E-4,3.6675468E-1,-2.1536192E-2,-4.2218724E-1,6.7797446E-1,-8.5294855E-1,6.8872963E-4,-7.922473E-2,1.2797611E-2,9.25206E-1,3.1608528E-1,-1.0837425E-1,-1.749306E-2,1.909002E-1,-3.9479636E-2,1.2972383E-1,-1.0542298E-2,-2.8860826E-2,6.333719E-1,-2.903424E-1,3.2228997E-1,-6.059468E-1,-1.87173E-2,7.698639E-3,8.362726E-2,3.2610652E-1,-6.801712E-1,2.3772266E-2,4.321671E-1,-1.287979E-3,-7.738899E-1,2.066723E-1,-7.8131475E-2,-2.2814076E-2,6.342637E-2,3.6795612E-3,-9.301748E-2,-5.020958E-2,2.0247094E-2,1.1679801E-2,5.7976592E-2,-1.209463E-1,-2.0752756E-2,-8.719956E-3,5.868541E-2,-4.725153E-2,-2.3509671E-3],"categories":[],"categories_nodes":[],"categories_segments":[],"categories_sizes":[],"default_left":[0,0,0,0,0,0,0,0,0,0,0,0,0,0,0,0,0,0,0,0,0,0,0,0,0,0,0,0,0,0,0,0,0,0,0,0,0,0,0,0,0,0,0,0,0,0,0],"id":6,"left_children":[1,3,5,7,9,11,13,-1,-1,15,17,-1,-1,19,21,-1,-1,-1,23,25,27,29,31,-1,-1,33,35,37,39,-1,41,43,45,-1,-1,-1,-1,-1,-1,-1,-1,-1,-1,-1,-1,-1,-1],"loss_changes":[2.045653E0,3.8216062E0,4.3465724E0,1.0561265E0,6.657181E-1,7.6876354E-1,1.7654024E0,0E0,0E0,2.3773685E0,1.308182E0,0E0,0E0,2.640882E0,2.2325318E0,0E0,0E0,0E0,4.0525436E-1,2.4245205E0,1.0432715E0,6.587224E-1,2.4945192E0,0E0,0E0,8.666296E-1,1.098809E0,1.0131857E0,1.0224423E0,0E0,1.0355346E0,4.3953867E0,3.1596422E0,0E0,0E0,0E0,0E0,0E0,0E0,0E0,0E0,0E0,0E0,0E0,0E0,0E0,0E0],"parents":[2147483647,0,0,1,1,2,2,3,3,4,4,5,5,6,6,9,9,10,10,13,13,14,14,18,18,19,19,20,20,21,21,22,22,25,25,26,26,27,27,28,28,30,30,31,31,32,32],"right_children":[2,4,6,8,10,12,14,-1,-1,16,18,-1,-1,20,22,-1,-1,-1,24,26,28,30,32,-1,-1,34,36,38,40,-1,42,44,46,-1,-1,-1,-1,-1,-1,-1,-1,-1,-1,-1,-1,-1,-1],"split_conditions":[8E6,1E0,9E6,9E0,1E0,1E0,1.6E7,-7.922473E-2,1.2797611E-2,7E6,6E0,-1.0837425E-1,-1.749306E-2,1E7,1.7E7,1.2972383E-1,-1.0542298E-2,-2.8860826E-2,6E6,9E0,1E0,7E0,2.9E1,7.698639E-3,8.362726E-2,4E0,2E0,2E0,3.1E1,-1.287979E-3,2.9E1,1E0,3.3E1,-2.2814076E-2,6.342637E-2,3.6795612E-3,-9.301748E-2,-5.020958E-2,2.0247094E-2,1.1679801E-2,5.7976592E-2,-1.209463E-1,-2.0752756E-2,-8.719956E-3,5.868541E-2,-4.725153E-2,-2.3509671E-3],"split_indices":[3,6,3,2,1,1,3,0,0,3,2,0,0,3,3,0,0,0,3,2,6,2,0,0,0,2,4,4,0,0,0,1,0,0,0,0,0,0,0,0,0,0,0,0,0,0,0],"split_type":[0,0,0,0,0,0,0,0,0,0,0,0,0,0,0,0,0,0,0,0,0,0,0,0,0,0,0,0,0,0,0,0,0,0,0,0,0,0,0,0,0,0,0,0,0,0,0],"sum_hessian":[2.4759555E2,1.3398695E1,2.3419685E2,3.689432E0,9.709263E0,5.1242876E0,2.2907257E2,1.9426873E0,1.7467446E0,4.8436384E0,4.865625E0,3.376534E0,1.7477539E0,3.9286156E1,1.897864E2,3.368871E0,1.4747672E0,1.7055421E0,3.1600828E0,8.166147E0,3.1120008E1,5.7136517E0,1.8407275E2,1.213074E0,1.947009E0,3.2268643E0,4.939283E0,8.699981E0,2.2420029E1,1.4985237E0,4.2151284E0,3.7883183E1,1.4618958E2,1.2458163E0,1.9810479E0,1.4975088E0,3.4417741E0,1.7475675E0,6.952413E0,7.7188196E0,1.4701208E1,1.7408202E0,2.474308E0,2.1801645E1,1.6081537E1,1.6853342E1,1.2933623E2],"tree_param":{"num_deleted":"0","num_feature":"7","num_nodes":"47","size_leaf_vector":"1"}},{"base_weights":[1.4234656E-4,3.4194982E-1,-2.0603742E-2,-3.968564E-1,6.3467884E-1,-7.9851544E-1,-3.238512E-5,-7.4753545E-2,1.1988446E-2,1.08963154E-1,4.0908787E-1,-1.0182134E-1,-1.6382275E-2,1.991893E-2,-3.7761372E-1,-5.9838094E-2,7.984105E-1,4.6662603E-2,-2.632359E-1,2.2693291E-2,-5.639467E-1,9.1130495E-1,2.8724417E-2,2.492101E-2,5.914574E-1,1.6199252E-1,-6.1718565E-1,-1.1016592E-1,7.2366362E-3,3.9160453E-2,1.10217534E-1,4.6065464E-3,-3.4277476E-2,1.0767167E-1,2.7358947E-2,-7.308047E-2,4.2114932E-2,-8.750989E-2,-1.9222985E-3,2.3738876E-2,-3.603789E-2],"categories":[],"categories_nodes":[],"categories_segments":[],"categories_sizes":[],"default_left":[0,0,0,0,0,0,0,0,0,0,0,0,0,0,0,0,0,0,0,0,0,0,0,0,0,0,0,0,0,0,0,0,0,0,0,0,0,0,0,0,0],"id":7,"left_children":[1,3,5,7,9,11,13,-1,-1,-1,15,-1,-1,17,19,-1,21,23,25,-1,27,29,-1,31,33,35,37,-1,39,-1,-1,-1,-1,-1,-1,-1,-1,-1,-1,-1,-1],"loss_changes":[1.7662848E0,3.3343725E0,3.7579806E0,9.340557E-1,6.4143944E-1,6.7681575E-1,1.7385539E0,0E0,0E0,0E0,3.8833685E0,0E0,0E0,1.6722215E0,1.432719E0,0E0,1.2435579E-1,2.3676546E0,2.969806E0,0E0,2.8153539E0,6.6372395E-2,0E0,1.5276706E0,8.8925743E-1,2.4951148E0,1.6200557E0,0E0,5.446162E-1,0E0,0E0,0E0,0E0,0E0,0E0,0E0,0E0,0E0,0E0,0E0,0E0],"parents":[2147483647,0,0,1,1,2,2,3,3,4,4,5,5,6,6,10,10,13,13,14,14,16,16,17,17,18,18,20,20,21,21,23,23,24,24,25,25,26,26,28,28],"right_children":[2,4,6,8,10,12,14,-1,-1,-1,16,-1,-1,18,20,-1,22,24,26,-1,28,30,-1,32,34,36,38,-1,40,-1,-1,-1,-1,-1,-1,-1,-1,-1,-1,-1,-1],"split_conditions":[8E6,1E0,9E6,9E0,3.1E1,1E0,1.9E1,-7.4753545E-2,1.1988446E-2,1.08963154E-1,3.8E1,-1.0182134E-1,-1.6382275E-2,4.7E7,1.8E7,-5.9838094E-2,1.5E1,4.6E7,1E1,2.2693291E-2,3E7,4E0,2.8724417E-2,4.4E7,2.4E1,1E0,4.9E7,-1.1016592E-1,4.1E7,3.9160453E-2,1.10217534E-1,4.6065464E-3,-3.4277476E-2,1.0767167E-1,2.7358947E-2,-7.308047E-2,4.2114932E-2,-8.750989E-2,-1.9222985E-3,2.3738876E-2,-3.603789E-2],"split_indices":[3,6,3,2,0,1,2,0,0,0,0,0,0,3,3,0,2,3,2,0,3,2,0,3,0,6,3,0,3,0,0,0,0,0,0,0,0,0,0,0,0],"split_type":[0,0,0,0,0,0,0,0,0,0,0,0,0,0,0,0,0,0,0,0,0,0,0,0,0,0,0,0,0,0,0,0,0,0,0,0,0,0,0,0,0],"sum_hessian":[2.470888E2,1.3253E1,2.3383582E2,3.6599913E0,9.593009E0,5.0500455E0,2.2878577E2,1.914266E0,1.7457254E0,1.9103186E0,7.68269E0,3.302595E0,1.7474505E0,2.182032E2,1.0582563E1,1.9916979E0,5.6909924E0,2.0013579E2,1.8067408E1,2.44194E0,8.140623E0,4.0202894E0,1.6707029E0,1.9346092E2,6.674867E0,8.453666E0,9.613742E0,3.7147877E0,4.4258356E0,1.8996404E0,2.1206489E0,1.83768E2,9.692916E0,1.6969633E0,4.977904E0,1.4924009E0,6.961265E0,6.3928924E0,3.2208498E0,2.9396582E0,1.4861774E0],"tree_param":{"num_deleted":"0","num_feature":"7","num_nodes":"41","size_leaf_vector":"1"}},{"base_weights":[-1.7230083E-4,3.236119E-1,-1.9609937E-2,-3.7350732E-1,6.013187E-1,-4.9407965E-1,1.0657126E-2,-7.0649475E-2,1.12308925E-2,8.382762E-1,2.642662E-1,3.1093767E-2,-7.396298E-1,2.8745767E-1,-3.5868995E-2,1.1885636E-1,-9.9526E-3,-2.8192455E-2,5.592649E-1,4.634474E-2,-4.0628597E-2,-2.56686E-1,-8.8927627E-1,-4.6155266E-2,3.7713984E-1,-5.7230335E-1,-1.6235227E-2,5.848403E-3,7.475711E-2,-6.593373E-2,3.036339E-2,-3.4677127E-1,-1.09268084E-1,-3.897379E-1,9.692875E-2,-1.863384E-1,4.5360506E-1,-1.4870422E-3,-7.3018765E-1,1.8758352E-1,-6.982183E-2,-9.03661E-2,3.6078624E-2,-7.1425564E-3,-8.670355E-2,-6.721316E-2,3.28142E-2,6.822039E-2,2.7082954E-2,-1.14271306E-1,-1.961679E-2,-7.673714E-3,5.3063672E-2,-2.4544236E-3,-4.891622E-2],"categories":[],"categories_nodes":[],"categories_segments":[],"categories_sizes":[],"default_left":[0,0,0,0,0,0,0,0,0,0,0,0,0,0,0,0,0,0,0,0,0,0,0,0,0,0,0,0,0,0,0,0,0,0,0,0,0,0,0,0,0,0,0,0,0,0,0,0,0,0,0,0,0,0,0],"id":8,"left_children":[1,3,5,7,9,11,13,-1,-1,15,17,19,21,23,25,-1,-1,-1,27,-1,-1,29,31,33,35,37,39,-1,-1,-1,-1,41,-1,43,-1,45,47,-1,49,51,53,-1,-1,-1,-1,-1,-1,-1,-1,-1,-1,-1,-1,-1,-1],"loss_changes":[1.564451E0,2.9499702E0,3.3727603E0,8.27905E-1,6.131184E-1,1.8390489E0,2.861722E0,0E0,0E0,1.9828601E0,1.0880803E0,1.2182121E0,4.6816063E-1,9.7396183E-1,1.9964452E0,0E0,0E0,0E0,3.414513E-1,0E0,0E0,1.0316623E0,3.8811493E-1,3.0518682E0,1.1749012E0,5.7835317E-1,2.0308542E0,0E0,0E0,0E0,0E0,1.650124E0,0E0,9.165159E-1,0E0,1.1534611E0,7.584348E-1,0E0,9.20578E-1,3.5526996E0,2.779273E0,0E0,0E0,0E0,0E0,0E0,0E0,0E0,0E0,0E0,0E0,0E0,0E0,0E0,0E0],"parents":[2147483647,0,0,1,1,2,2,3,3,4,4,5,5,6,6,9,9,10,10,11,11,12,12,13,13,14,14,18,18,21,21,22,22,23,23,24,24,25,25,26,26,31,31,33,33,35,35,36,36,38,38,39,39,40,40],"right_children":[2,4,6,8,10,12,14,-1,-1,16,18,20,22,24,26,-1,-1,-1,28,-1,-1,30,32,34,36,38,40,-1,-1,-1,-1,42,-1,44,-1,46,48,-1,50,52,54,-1,-1,-1,-1,-1,-1,-1,-1,-1,-1,-1,-1,-1,-1],"split_conditions":[8E6,1E0,1E7,9E0,1E0,3.4E1,1.6E7,-7.0649475E-2,1.12308925E-2,7E6,6E0,1E0,2E0,2E0,1.7E7,1.1885636E-1,-9.9526E-3,-2.8192455E-2,6E6,4.634474E-2,-4.0628597E-2,5E1,1E1,1.5E7,2.4E1,7E0,2.9E1,5.848403E-3,7.475711E-2,-6.593373E-2,3.036339E-2,4E0,-1.09268084E-1,1.4E1,9.692875E-2,4E0,3E0,-1.4870422E-3,2.9E1,1E0,4.7E7,-9.03661E-2,3.6078624E-2,-7.1425564E-3,-8.670355E-2,-6.721316E-2,3.28142E-2,6.822039E-2,2.7082954E-2,-1.14271306E-1,-1.961679E-2,-7.673714E-3,5.3063672E-2,-2.4544236E-3,-4.891622E-2],"split_indices":[3,6,3,2,1,0,3,0,0,3,2,1,4,4,3,0,0,0,3,0,0,0,2,3,0,2,0,0,0,0,0,2,0,2,0,4,4,0,0,1,3,0,0,0,0,0,0,0,0,0,0,0,0,0,0],"split_type":[0,0,0,0,0,0,0,0,0,0,0,0,0,0,0,0,0,0,0,0,0,0,0,0,0,0,0,0,0,0,0,0,0,0,0,0,0,0,0,0,0,0,0,0,0,0,0,0,0,0,0,0,0,0,0],"sum_hessian":[2.465698E2,1.3077723E1,2.3349207E2,3.6272857E0,9.450437E0,1.3082674E1,2.204094E2,1.882644E0,1.7446418E0,4.675998E0,4.7744384E0,4.4463525E0,8.636321E0,3.0971344E1,1.8943805E2,3.209715E0,1.4662836E0,1.6899016E0,3.0845366E0,2.2060518E0,2.2403007E0,2.6853523E0,5.9509687E0,6.6646266E0,2.4306719E1,5.6948285E0,1.8374323E2,1.2010491E0,1.8834876E0,1.4596897E0,1.2256626E0,2.3603797E0,3.590589E0,5.440113E0,1.2245136E0,2.7326553E0,2.1574062E1,1.4984661E0,4.196362E0,3.7731064E1,1.4601216E2,1.1657274E0,1.1946522E0,3.953289E0,1.4868242E0,1.247905E0,1.4847503E0,8.371406E0,1.3202657E1,1.7244258E0,2.4719362E0,2.1749502E1,1.5981563E1,1.3273846E2,1.3273688E1],"tree_param":{"num_deleted":"0","num_feature":"7","num_nodes":"55","size_leaf_vector":"1"}},{"base_weights":[-8.25138E-4,-4.5026958E-2,1.3724133E-1,3.1377295E-1,-6.763362E-2,-5.034547E-2,2.94285E-1,-1.7827815E-1,7.6696575E-1,-6.353127E-1,-4.9393762E-2,4.4936547E-1,-3.0812907E-1,-3.2993904E-1,3.6506063E-1,1.2883332E-1,-7.901003E-2,1.1019814E-1,2.3694018E-1,-9.054858E-2,4.641958E-3,3.057253E-2,-2.1176985E-1,8.1244904E-1,-8.169317E-2,-4.0368715E-1,4.2127337E-2,-7.361356E-2,2.1631233E-2,5.9837073E-1,1.3093384E-1,-1.8654636E-1,6.0033053E-2,8.5438795E-2,-3.9994292E-2,2.8447887E-1,-8.53489E-2,-4.3410888E-1,3.1576946E-1,2.1023618E-2,9.103531E-1,-2.0356065E-1,-6.350643E-1,1.061561E0,-7.875706E-2,-6.121971E-1,4.3694967E-1,-5.8453258E-2,3.8373794E-2,-8.683127E-4,4.554838E-2,1.9041566E-2,-2.2791237E-2,-3.2648455E-2,-1.0445302E-1,7.517623E-2,-9.8641785E-3,1.1300142E-1,3.0947864E-2,-5.7069965E-2,5.7722714E-2,-9.837865E-2,4.0558033E-4,1.7201949E-2,1.18251145E-1,-4.4414446E-2,3.582886E-2,3.3572234E-2,-1.16950534E-1,5.8438122E-2,-1.4843449E-2],"categories":[],"categories_nodes":[],"categories_segments":[],"categories_sizes":[],"default_left":[0,0,0,0,0,0,0,0,0,0,0,0,0,0,0,0,0,0,0,0,0,0,0,0,0,0,0,0,0,0,0,0,0,0,0,0,0,0,0,0,0,0,0,0,0,0,0,0,0,0,0,0,0,0,0,0,0,0,0,0,0,0,0,0,0,0,0,0,0,0,0],"id":9,"left_children":[1,3,5,7,9,11,13,15,17,19,21,23,25,27,29,31,-1,-1,33,-1,-1,35,37,39,-1,41,-1,-1,-1,43,45,47,-1,-1,-1,49,51,53,55,-1,57,59,61,63,65,67,69,-1,-1,-1,-1,-1,-1,-1,-1,-1,-1,-1,-1,-1,-1,-1,-1,-1,-1,-1,-1,-1,-1,-1,-1],"loss_changes":[1.5134368E0,1.5448159E0,1.786549E0,2.6589634E0,1.8067921E0,3.778802E0,1.573169E0,1.273198E0,8.1787586E-1,1.0443976E0,2.253901E0,5.272402E0,1.5108068E0,1.0187795E0,1.5608237E0,8.57063E-1,0E0,0E0,1.7680815E0,0E0,0E0,3.4633946E0,6.850793E0,2.9747486E-1,0E0,6.819079E-1,0E0,0E0,0E0,4.709839E0,3.964723E0,1.0788906E0,0E0,0E0,0E0,1.8515975E0,3.2274098E0,2.3320732E0,3.2451472E0,0E0,5.5200386E-1,3.4440405E0,1.7096705E0,7.463732E-1,1.2645719E0,3.1178417E0,1.1309671E0,0E0,0E0,0E0,0E0,0E0,0E0,0E0,0E0,0E0,0E0,0E0,0E0,0E0,0E0,0E0,0E0,0E0,0E0,0E0,0E0,0E0,0E0,0E0,0E0],"parents":[2147483647,0,0,1,1,2,2,3,3,4,4,5,5,6,6,7,7,8,8,9,9,10,10,11,11,12,12,13,13,14,14,15,15,18,18,21,21,22,22,23,23,25,25,29,29,30,30,31,31,35,35,36,36,37,37,38,38,40,40,41,41,42,42,43,43,44,44,45,45,46,46],"right_children":[2,4,6,8,10,12,14,16,18,20,22,24,26,28,30,32,-1,-1,34,-1,-1,36,38,40,-1,42,-1,-1,-1,44,46,48,-1,-1,-1,50,52,54,56,-1,58,60,62,64,66,68,70,-1,-1,-1,-1,-1,-1,-1,-1,-1,-1,-1,-1,-1,-1,-1,-1,-1,-1,-1,-1,-1,-1,-1,-1],"split_conditions":[4E0,8E6,1E0,2E0,9E6,7E0,1E7,1.2E1,1E0,1E0,3E0,5.2E1,5.5E1,2E0,1E0,8E0,-7.901003E-2,1.1019814E-1,1E0,-9.054858E-2,4.641958E-3,3.4E1,4.8E1,2.6E1,-8.169317E-2,4E1,4.2127337E-2,-7.361356E-2,2.1631233E-2,3E7,2.3E7,1E0,6.0033053E-2,8.5438795E-2,-3.9994292E-2,2.4E1,2.4E7,4.6E7,1E0,2.1023618E-2,4.4E1,3.5E1,1.7E1,2.3E1,8E0,1.5E7,5.2E1,-5.8453258E-2,3.8373794E-2,-8.683127E-4,4.554838E-2,1.9041566E-2,-2.2791237E-2,-3.2648455E-2,-1.0445302E-1,7.517623E-2,-9.8641785E-3,1.1300142E-1,3.0947864E-2,-5.7069965E-2,5.7722714E-2,-9.837865E-2,4.0558033E-4,1.7201949E-2,1.18251145E-1,-4.4414446E-2,3.582886E-2,3.3572234E-2,-1.16950534E-1,5.8438122E-2,-1.4843449E-2],"split_indices":[4,3,1,6,3,2,3,2,1,1,4,0,0,6,5,2,0,0,5,0,0,0,0,0,0,0,0,0,0,3,3,6,0,0,0,0,3,3,1,0,0,0,2,0,2,3,0,0,0,0,0,0,0,0,0,0,0,0,0,0,0,0,0,0,0,0,0,0,0,0,0],"split_type":[0,0,0,0,0,0,0,0,0,0,0,0,0,0,0,0,0,0,0,0,0,0,0,0,0,0,0,0,0,0,0,0,0,0,0,0,0,0,0,0,0,0,0,0,0,0,0,0,0,0,0,0,0,0,0,0,0,0,0,0,0,0,0,0,0,0,0,0,0,0,0],"sum_hessian":[2.4597844E2,1.8683675E2,5.9141693E1,1.0310753E1,1.7652599E2,2.725971E1,3.1881983E1,5.2342825E0,5.0764704E0,4.442144E0,1.7208385E2,9.02386E0,1.823585E1,2.8738208E0,2.9008162E1,4.0105605E0,1.2237219E0,2.4492512E0,2.6272192E0,2.9463005E0,1.4958432E0,1.158448E2,5.6239044E1,7.2915654E0,1.7322943E0,1.6518353E1,1.717497E0,1.4488395E0,1.4249811E0,1.3750185E1,1.5257977E1,2.7652597E0,1.2453007E0,1.1605604E0,1.466659E0,3.5855442E1,7.998936E1,3.9688755E1,1.6550291E1,1.4597768E0,5.8317885E0,9.865287E0,6.653066E0,7.827816E0,5.9223695E0,4.158619E0,1.1099359E1,1.6139457E0,1.151314E0,1.35593E1,2.2296139E1,2.7145466E1,5.2843895E1,3.50448E1,4.6439533E0,7.668443E0,8.881847E0,3.6257215E0,2.206067E0,6.8931084E0,2.9721785E0,3.955532E0,2.6975338E0,1.2268755E0,6.60094E0,3.2167754E0,2.705594E0,1.6869333E0,2.4716854E0,8.867702E0,2.2316563E0],"tree_param":{"num_deleted":"0","num_feature":"7","num_nodes":"71","size_leaf_vector":"1"}},{"base_weights":[-4.4858683E-4,2.9391465E-1,-1.7769145E-2,-1.515982E-1,6.7336655E-1,-4.4765505E-1,9.311907E-3,-4.4191793E-1,1.4249271E-1,8.250931E-2,9.4952755E-2,3.4653835E-2,-6.7721146E-1,2.4958108E-1,-3.090031E-2,-7.710232E-2,1.412186E-2,6.724239E-2,-5.4805815E-2,-1.8299341E-2,3.4347158E-2,-3.354786E-1,5.279671E-2,-9.845392E-2,-3.9999846E-1,1.320447E-1,5.1239526E-1,-1.138004E-1,1.0687757E-1,4.3726895E-2,-1.0353086E-1,2.7240817E-2,-6.8906087E-1,-1.6498828E-3,5.0706106E-1,1.0344886E-1,1.809701E-1,-7.447832E-2,-7.0779604E-1,5.203854E-1,-5.234983E-2,-1.6011886E-2,-1.024006E-1,3.1301737E-2,-3.663797E-2,9.1431655E-2,4.4522546E-3,-5.1492345E-2,4.5994114E-2,-2.2941701E-2,1.0551577E-2,-9.292992E-2,-7.1996585E-3,1.3278737E-2,8.5216396E-2,1.7495234E-2,-4.714575E-2],"categories":[],"categories_nodes":[],"categories_segments":[],"categories_sizes":[],"default_left":[0,0,0,0,0,0,0,0,0,0,0,0,0,0,0,0,0,0,0,0,0,0,0,0,0,0,0,0,0,0,0,0,0,0,0,0,0,0,0,0,0,0,0,0,0,0,0,0,0,0,0,0,0,0,0,0,0],"id":10,"left_children":[1,3,5,7,9,11,13,15,17,19,-1,21,23,25,27,-1,-1,-1,-1,-1,-1,29,-1,-1,31,33,35,37,39,-1,-1,-1,41,43,45,-1,47,49,51,53,55,-1,-1,-1,-1,-1,-1,-1,-1,-1,-1,-1,-1,-1,-1,-1,-1],"loss_changes":[1.2608185E0,2.425216E0,2.7227964E0,6.723415E-1,1.1625931E0,1.5579629E0,2.1397152E0,8.449506E-1,1.9427168E0,3.0656916E-1,0E0,1.1668847E0,4.1033983E-1,9.1299665E-1,2.1813638E0,0E0,0E0,0E0,0E0,0E0,0E0,2.4582078E0,0E0,0E0,1.4796493E0,1.1682072E0,1.4502461E0,2.7281237E0,4.7586536E0,0E0,0E0,0E0,7.097988E-1,2.1989903E0,1.1125658E0,0E0,1.5958905E0,3.169499E0,9.5758057E-1,2.467709E0,5.111556E0,0E0,0E0,0E0,0E0,0E0,0E0,0E0,0E0,0E0,0E0,0E0,0E0,0E0,0E0,0E0,0E0],"parents":[2147483647,0,0,1,1,2,2,3,3,4,4,5,5,6,6,7,7,8,8,9,9,11,11,12,12,13,13,14,14,21,21,24,24,25,25,26,26,27,27,28,28,32,32,33,33,34,34,36,36,37,37,38,38,39,39,40,40],"right_children":[2,4,6,8,10,12,14,16,18,20,-1,22,24,26,28,-1,-1,-1,-1,-1,-1,30,-1,-1,32,34,36,38,40,-1,-1,-1,42,44,46,-1,48,50,52,54,56,-1,-1,-1,-1,-1,-1,-1,-1,-1,-1,-1,-1,-1,-1,-1,-1],"split_conditions":[8E6,2E0,1E7,3.8E1,6E6,3.4E1,1.6E7,1E1,5E1,1.3E1,9.4952755E-2,3E0,4.2E1,3E0,3.7E7,-7.710232E-2,1.412186E-2,6.724239E-2,-5.4805815E-2,-1.8299341E-2,3.4347158E-2,1E0,5.279671E-2,-9.845392E-2,2E0,1.5E7,2.8E1,1.9E1,4.1E7,4.3726895E-2,-1.0353086E-1,2.7240817E-2,5.2E1,1.3E7,3.3E1,1.0344886E-1,3.7E1,1E1,4E0,1E0,1.2E1,-1.6011886E-2,-1.024006E-1,3.1301737E-2,-3.663797E-2,9.1431655E-2,4.4522546E-3,-5.1492345E-2,4.5994114E-2,-2.2941701E-2,1.0551577E-2,-9.292992E-2,-7.1996585E-3,1.3278737E-2,8.5216396E-2,1.7495234E-2,-4.714575E-2],"split_indices":[3,6,3,0,3,0,3,2,0,2,0,4,0,6,3,0,0,0,0,0,0,1,0,0,4,3,0,2,3,0,0,0,0,3,0,0,0,2,4,1,2,0,0,0,0,0,0,0,0,0,0,0,0,0,0,0,0],"split_type":[0,0,0,0,0,0,0,0,0,0,0,0,0,0,0,0,0,0,0,0,0,0,0,0,0,0,0,0,0,0,0,0,0,0,0,0,0,0,0,0,0,0,0,0,0,0,0,0,0,0,0,0,0,0,0,0,0],"sum_hessian":[2.4526596E2,1.2742239E1,2.3252373E2,6.1371355E0,6.6051035E0,1.2859602E1,2.1966412E2,2.8354182E0,3.301717E0,2.5175278E0,4.087576E0,4.4206486E0,8.438953E0,3.0746471E1,1.8891766E2,1.6065361E0,1.2288821E0,1.8829696E0,1.4187475E0,1.3960067E0,1.1215211E0,2.7084496E0,1.712199E0,2.7920406E0,5.6469126E0,2.2283306E1,8.463166E0,1.1805733E2,7.086033E1,1.465468E0,1.2429817E0,1.7150469E0,3.9318657E0,1.7160965E1,5.1223407E0,2.4625626E0,6.000603E0,1.11782776E2,6.2745533E0,1.9069454E1,5.1790874E1,2.0975232E0,1.8343425E0,9.288865E0,7.8721E0,2.2045472E0,2.9177933E0,1.4751197E0,4.5254836E0,5.9924908E1,5.185787E1,4.3110304E0,1.963523E0,9.440676E0,9.6287775E0,3.395695E1,1.7833921E1],"tree_param":{"num_deleted":"0","num_feature":"7","num_nodes":"57","size_leaf_vector":"1"}},{"base_weights":[-3.743562E-4,-4.051513E-2,1.2527011E-1,2.8340825E-1,-6.2339906E-2,-3.9433192E-2,2.6332554E-1,-7.697442E-1,7.168261E-1,-2.864589E-1,-1.0997637E-2,4.2787686E-1,-2.792582E-1,-3.2094726E-1,3.297958E-1,-1.16988696E-1,-6.2498082E-3,2.910243E-1,1.01935826E-1,3.9888334E-1,-4.559848E-1,-8.8452734E-2,1.8138963E-1,7.6840484E-1,-7.593111E-2,-3.7025788E-1,4.092717E-2,-6.8987444E-2,1.8691165E-2,1.0187652E-1,2.48101E-1,8.802071E-2,-3.5226565E-2,-5.2287676E-3,5.694389E-1,2.046181E-1,-6.411922E-1,1.7641488E-2,-3.0535212E-1,1.1363297E-1,8.595489E-2,2.0097187E-2,8.608272E-1,4.9713843E-2,-4.5583627E-1,9.729922E-2,5.688071E-1,7.383213E-2,1.4888602E-2,-4.8902363E-2,9.878462E-2,-9.2846826E-2,-2.2616712E-2,1.6043572E-2,-1.24589475E-2,-1.861719E-2,-9.8549195E-2,-3.9049577E-2,1.9065602E-2,1.0759266E-1,2.8283829E-2,4.9515095E-2,-3.37516E-2,-6.9889E-2,-2.1002144E-2,-1.0236607E-2,5.2109506E-2,9.050189E-2,-7.45102E-3],"categories":[],"categories_nodes":[],"categories_segments":[],"categories_sizes":[],"default_left":[0,0,0,0,0,0,0,0,0,0,0,0,0,0,0,0,0,0,0,0,0,0,0,0,0,0,0,0,0,0,0,0,0,0,0,0,0,0,0,0,0,0,0,0,0,0,0,0,0,0,0,0,0,0,0,0,0,0,0,0,0,0,0,0,0,0,0,0,0],"id":11,"left_children":[1,3,5,7,9,11,13,15,17,19,21,23,25,27,29,-1,-1,31,-1,33,35,37,39,41,-1,43,-1,-1,-1,-1,45,-1,-1,-1,47,49,51,53,55,-1,57,-1,59,61,63,65,67,-1,-1,-1,-1,-1,-1,-1,-1,-1,-1,-1,-1,-1,-1,-1,-1,-1,-1,-1,-1,-1,-1],"loss_changes":[1.2438385E0,1.3389883E0,1.3681843E0,6.0193014E0,2.0211759E0,3.2686265E0,1.3725262E0,1.0516722E0,8.631897E-1,3.9868944E0,2.1644442E0,4.5957336E0,1.3529243E0,8.481029E-1,1.4232569E0,0E0,0E0,2.2580166E0,0E0,5.7057333E-1,3.4006119E0,2.3862581E0,3.703675E0,2.5753498E-1,0E0,6.502197E-1,0E0,0E0,0E0,0E0,1.2960415E0,0E0,0E0,0E0,2.582699E-1,4.0738506E0,2.307209E0,1.4502798E0,2.57573E0,0E0,2.0201347E0,0E0,5.355134E-1,8.324757E-1,7.2572803E-1,1.763633E0,1.9557536E0,0E0,0E0,0E0,0E0,0E0,0E0,0E0,0E0,0E0,0E0,0E0,0E0,0E0,0E0,0E0,0E0,0E0,0E0,0E0,0E0,0E0,0E0],"parents":[2147483647,0,0,1,1,2,2,3,3,4,4,5,5,6,6,7,7,8,8,9,9,10,10,11,11,12,12,13,13,14,14,17,17,19,19,20,20,21,21,22,22,23,23,25,25,30,30,34,34,35,35,36,36,37,37,38,38,40,40,42,42,43,43,44,44,45,45,46,46],"right_children":[2,4,6,8,10,12,14,16,18,20,22,24,26,28,30,-1,-1,32,-1,34,36,38,40,42,-1,44,-1,-1,-1,-1,46,-1,-1,-1,48,50,52,54,56,-1,58,-1,60,62,64,66,68,-1,-1,-1,-1,-1,-1,-1,-1,-1,-1,-1,-1,-1,-1,-1,-1,-1,-1,-1,-1,-1,-1],"split_conditions":[4E0,1E0,1E0,1E0,4E0,7E0,1E7,2E0,4.1E1,2.9E1,4.8E1,5.2E1,5.5E1,2E0,1.3E7,-1.16988696E-1,-6.2498082E-3,3.2E1,1.01935826E-1,1.8E7,1.9E7,3E0,5E0,2.6E1,-7.593111E-2,1.4E7,4.092717E-2,-6.8987444E-2,1.8691165E-2,1.0187652E-1,1.4E1,8.802071E-2,-3.5226565E-2,-5.2287676E-3,2.4E1,1.3E7,3.7E7,1E0,4.6E7,1.1363297E-1,1.2E7,2.0097187E-2,5E0,1.4E1,3E7,3.7E7,3E7,7.383213E-2,1.4888602E-2,-4.8902363E-2,9.878462E-2,-9.2846826E-2,-2.2616712E-2,1.6043572E-2,-1.24589475E-2,-1.861719E-2,-9.8549195E-2,-3.9049577E-2,1.9065602E-2,1.0759266E-1,2.8283829E-2,4.9515095E-2,-3.37516E-2,-6.9889E-2,-2.1002144E-2,-1.0236607E-2,5.2109506E-2,9.050189E-2,-7.45102E-3],"split_indices":[4,2,1,6,2,2,3,4,0,0,0,0,0,6,3,0,0,0,0,3,3,4,2,0,0,3,0,0,0,0,2,0,0,0,0,3,3,1,3,0,3,0,2,2,3,3,3,0,0,0,0,0,0,0,0,0,0,0,0,0,0,0,0,0,0,0,0,0,0],"split_type":[0,0,0,0,0,0,0,0,0,0,0,0,0,0,0,0,0,0,0,0,0,0,0,0,0,0,0,0,0,0,0,0,0,0,0,0,0,0,0,0,0,0,0,0,0,0,0,0,0,0,0,0,0,0,0,0,0,0,0,0,0,0,0,0,0,0,0,0,0],"sum_hessian":[2.4461746E2,1.8590292E2,5.8714542E1,1.0978242E1,1.7492468E2,2.7099083E1,3.161546E1,2.974524E0,8.003717E0,3.1750067E1,1.431746E2,8.924725E0,1.8174356E1,2.8383117E0,2.877715E1,1.4819362E0,1.4925877E0,4.1395006E0,3.8642168E0,6.027949E0,2.5722118E1,1.0246318E2,4.0711433E1,7.209527E0,1.715198E0,1.6461031E1,1.7133265E0,1.4364351E0,1.4018764E0,1.8346171E0,2.6942532E1,1.9683859E0,2.171115E0,1.843846E0,4.184103E0,5.609433E0,2.0112686E1,6.942385E1,3.303933E1,2.7079759E0,3.8003456E1,1.4544342E0,5.7550926E0,2.857428E0,1.3603603E1,1.9212065E1,7.7304673E0,2.4461856E0,1.7379173E0,3.174058E0,2.4353755E0,1.1154511E1,8.958174E0,3.4579456E1,3.484439E1,2.919691E1,3.84242E0,6.354984E0,3.1648472E1,3.566365E0,2.1887276E0,1.1992313E0,1.6581967E0,5.913435E0,7.690168E0,1.35749E1,5.637164E0,4.809905E0,2.920562E0],"tree_param":{"num_deleted":"0","num_feature":"7","num_nodes":"69","size_leaf_vector":"1"}},{"base_weights":[7.281857E-4,2.8037935E-1,-1.5635623E-2,-3.128724E-1,5.190389E-1,-6.525673E-1,4.86754E-4,-6.0896266E-2,1.0246369E-2,9.842996E-2,2.9915565E-1,-8.608692E-2,-1.0893233E-2,1.8199733E-2,-3.4219053E-1,-5.595786E-2,6.560225E-1,1.01583235E-1,-6.1139215E-2,-5.286855E-1,2.3919818E-1,7.704212E-1,1.9524211E-2,-1.8343043E-1,2.0781367E-1,2.0959288E-1,-1.6104029E-1,1.6323263E-2,-8.0881816E-1,5.2867003E-2,-1.5764063E-2,2.6682872E-2,9.813094E-2,1.847196E-2,-4.1140847E-2,8.958938E-2,1.4164875E-2,3.3841476E-2,-6.23462E-2,-4.157926E-2,-6.2801773E-3,-1.0152985E-1,-2.2221072E-2],"categories":[],"categories_nodes":[],"categories_segments":[],"categories_sizes":[],"default_left":[0,0,0,0,0,0,0,0,0,0,0,0,0,0,0,0,0,0,0,0,0,0,0,0,0,0,0,0,0,0,0,0,0,0,0,0,0,0,0,0,0,0,0],"id":12,"left_children":[1,3,5,7,9,11,13,-1,-1,-1,15,-1,-1,17,19,-1,21,23,25,27,29,31,-1,33,35,37,39,-1,41,-1,-1,-1,-1,-1,-1,-1,-1,-1,-1,-1,-1,-1,-1],"loss_changes":[1.1250806E0,2.0866666E0,2.3858554E0,6.1860764E-1,7.3553133E-1,5.5575633E-1,1.3875537E0,0E0,0E0,0E0,2.9025502E0,0E0,0E0,1.4440143E0,1.3446866E0,0E0,1.8193388E-1,3.2578812E0,3.0627801E0,1.8412638E0,4.7589308E-1,2.3853064E-1,0E0,2.543992E0,3.421348E0,3.4971504E0,2.035374E0,0E0,5.5501366E-1,0E0,0E0,0E0,0E0,0E0,0E0,0E0,0E0,0E0,0E0,0E0,0E0,0E0,0E0],"parents":[2147483647,0,0,1,1,2,2,3,3,4,4,5,5,6,6,10,10,13,13,14,14,16,16,17,17,18,18,19,19,20,20,21,21,23,23,24,24,25,25,26,26,28,28],"right_children":[2,4,6,8,10,12,14,-1,-1,-1,16,-1,-1,18,20,-1,22,24,26,28,30,32,-1,34,36,38,40,-1,42,-1,-1,-1,-1,-1,-1,-1,-1,-1,-1,-1,-1,-1,-1],"split_conditions":[8E6,1E0,9E6,9E0,3.1E1,1E0,1.9E1,-6.0896266E-2,1.0246369E-2,9.842996E-2,3.8E1,-8.608692E-2,-1.0893233E-2,1E0,3.7E7,-5.595786E-2,1.5E1,5E0,5E0,1.8E7,2E0,4E0,1.9524211E-2,2.5E7,6E0,5.6E1,9E0,1.6323263E-2,3E7,5.2867003E-2,-1.5764063E-2,2.6682872E-2,9.813094E-2,1.847196E-2,-4.1140847E-2,8.958938E-2,1.4164875E-2,3.3841476E-2,-6.23462E-2,-4.157926E-2,-6.2801773E-3,-1.0152985E-1,-2.2221072E-2],"split_indices":[3,6,3,2,0,1,2,0,0,0,0,0,0,5,3,0,2,2,2,3,6,2,0,3,2,0,2,0,3,0,0,0,0,0,0,0,0,0,0,0,0,0,0],"split_type":[0,0,0,0,0,0,0,0,0,0,0,0,0,0,0,0,0,0,0,0,0,0,0,0,0,0,0,0,0,0,0,0,0,0,0,0,0,0,0,0,0,0,0],"sum_hessian":[2.4389902E2,1.2590921E1,2.313081E2,3.5228887E0,9.068032E0,4.735889E0,2.2657222E2,1.7845224E0,1.7383661E0,1.7945025E0,7.27353E0,3.0020611E0,1.7338276E0,2.1633667E2,1.0235545E1,1.9685485E0,5.3049817E0,1.0534305E2,1.1099362E2,7.818285E0,2.4172602E0,3.7115228E0,1.5934588E0,2.840538E1,7.693767E1,2.9621445E1,8.137218E1,2.3733914E0,5.444894E0,1.2056224E0,1.2116377E0,1.764125E0,1.9473978E0,1.0935672E1,1.7469707E1,5.649153E0,7.128851E1,2.616856E1,3.4528854E0,2.1746536E1,5.962564E1,3.4867818E0,1.958112E0],"tree_param":{"num_deleted":"0","num_feature":"7","num_nodes":"43","size_leaf_vector":"1"}},{"base_weights":[5.3762406E-4,1.2405713E-1,-3.4539912E-2,-3.2753628E-2,5.1295745E-1,-4.0884186E-3,-4.1681823E-1,-3.1062397E-1,2.5057E-1,9.739791E-2,3.0431575E-1,-5.1668257E-1,1.6482541E-2,-5.805922E-1,7.1556926E-2,1.6595104E-1,-4.774094E-1,3.0954244E-2,8.207354E-1,6.985939E-1,-1.6529387E-1,-1.0238808E-1,-2.2575831E-1,-9.186149E-2,1.1089594E-1,-1.0439428E-1,-3.2587492E-1,8.0076426E-2,-5.6819135E-1,-7.343503E-1,-1.492305E-1,-2.7865013E-1,3.7193808E-1,9.922706E-2,1.0566532E-2,1.5408302E-2,9.711514E-1,-7.3689073E-1,6.38018E-2,1.1594497E-1,-7.162136E-2,-1.8002385E-1,2.1732132E-1,3.1048417E-1,2.5778793E-2,1.1278593E-1,-8.51842E-1,-9.755636E-2,8.636259E-3,1.3339363E-2,-8.966375E-2,-5.017985E-2,2.5053099E-2,3.8121838E-2,-7.1330324E-2,-5.1862102E-2,1.0194158E-1,1.2023369E-1,2.9836312E-2,-1.09920286E-1,-1.3879116E-2,-2.9329753E-2,4.45915E-2,-4.7893334E-2,-5.6337165E-3,6.76875E-2,-1.0488092E-2,-7.620045E-2,6.698666E-2,5.254785E-2,-1.0339004E-2,5.884108E-2,-3.5918023E-2,-1.05566815E-1,-3.1504057E-2],"categories":[],"categories_nodes":[],"categories_segments":[],"categories_sizes":[],"default_left":[0,0,0,0,0,0,0,0,0,0,0,0,0,0,0,0,0,0,0,0,0,0,0,0,0,0,0,0,0,0,0,0,0,0,0,0,0,0,0,0,0,0,0,0,0,0,0,0,0,0,0,0,0,0,0,0,0,0,0,0,0,0,0,0,0,0,0,0,0,0,0,0,0,0,0],"id":13,"left_children":[1,3,5,7,9,11,13,15,17,-1,19,21,23,25,-1,27,29,31,33,35,37,-1,39,41,43,-1,45,-1,47,49,51,53,55,-1,-1,-1,57,59,-1,61,-1,63,65,67,69,71,73,-1,-1,-1,-1,-1,-1,-1,-1,-1,-1,-1,-1,-1,-1,-1,-1,-1,-1,-1,-1,-1,-1,-1,-1,-1,-1,-1,-1],"loss_changes":[1.0628644E0,3.3254733E0,2.2224722E0,3.1958039E0,1.2089753E0,1.8852137E0,3.027966E0,1.7040173E0,2.4994068E0,0E0,2.3796935E0,7.8666186E-1,1.7704166E0,1.1774836E0,0E0,3.270483E0,1.1889815E0,1.7500857E0,5.780821E-1,8.653178E-1,3.404167E0,0E0,1.0326626E0,2.2381997E0,1.5618001E0,0E0,2.3459496E0,0E0,9.872285E-1,1.3000507E0,1.2557383E0,2.7803073E0,5.055176E0,0E0,0E0,0E0,3.208108E-1,7.570107E-1,0E0,6.9798166E-1,0E0,2.3141153E0,2.7885408E0,1.1123451E1,4.305906E0,1.6031396E0,1.654067E-1,0E0,0E0,0E0,0E0,0E0,0E0,0E0,0E0,0E0,0E0,0E0,0E0,0E0,0E0,0E0,0E0,0E0,0E0,0E0,0E0,0E0,0E0,0E0,0E0,0E0,0E0,0E0,0E0],"parents":[2147483647,0,0,1,1,2,2,3,3,4,4,5,5,6,6,7,7,8,8,10,10,11,11,12,12,13,13,15,15,16,16,17,17,18,18,19,19,20,20,22,22,23,23,24,24,26,26,28,28,29,29,30,30,31,31,32,32,36,36,37,37,39,39,41,41,42,42,43,43,44,44,45,45,46,46],"right_children":[2,4,6,8,10,12,14,16,18,-1,20,22,24,26,-1,28,30,32,34,36,38,-1,40,42,44,-1,46,-1,48,50,52,54,56,-1,-1,-1,58,60,-1,62,-1,64,66,68,70,72,74,-1,-1,-1,-1,-1,-1,-1,-1,-1,-1,-1,-1,-1,-1,-1,-1,-1,-1,-1,-1,-1,-1,-1,-1,-1,-1,-1,-1],"split_conditions":[2.9E1,3.9E7,4.7E7,2.4E1,2E0,3E1,5.4E1,6E0,3E0,9.739791E-2,2.4E1,3E0,9E0,1E0,7.1556926E-2,1E0,1.3E1,1E0,1.3E1,4.5E7,4E0,-1.0238808E-1,1.4E1,4E0,1.2E1,-1.0439428E-1,1.1E1,8.0076426E-2,1E0,1.3E7,1E0,1.8E7,1.5E7,9.922706E-2,1.0566532E-2,1.5408302E-2,2E0,2E0,6.38018E-2,2E0,-7.162136E-2,3.9E1,4.5E1,3.7E1,3.6E1,1E0,1.4E1,-9.755636E-2,8.636259E-3,1.3339363E-2,-8.966375E-2,-5.017985E-2,2.5053099E-2,3.8121838E-2,-7.1330324E-2,-5.1862102E-2,1.0194158E-1,1.2023369E-1,2.9836312E-2,-1.09920286E-1,-1.3879116E-2,-2.9329753E-2,4.45915E-2,-4.7893334E-2,-5.6337165E-3,6.76875E-2,-1.0488092E-2,-7.620045E-2,6.698666E-2,5.254785E-2,-1.0339004E-2,5.884108E-2,-3.5918023E-2,-1.05566815E-1,-3.1504057E-2],"split_indices":[0,3,3,0,4,0,0,2,6,0,0,2,2,6,0,1,2,1,2,3,4,0,2,4,2,0,2,0,5,3,5,3,3,0,0,0,6,6,0,6,0,0,0,0,0,1,2,0,0,0,0,0,0,0,0,0,0,0,0,0,0,0,0,0,0,0,0,0,0,0,0,0,0,0,0],"split_type":[0,0,0,0,0,0,0,0,0,0,0,0,0,0,0,0,0,0,0,0,0,0,0,0,0,0,0,0,0,0,0,0,0,0,0,0,0,0,0,0,0,0,0,0,0,0,0,0,0,0,0,0,0,0,0,0,0,0,0,0,0,0,0,0,0,0,0,0,0,0,0,0,0,0,0],"sum_hessian":[2.4331989E2,5.3254982E1,1.900649E2,3.8604725E1,1.4650257E1,1.769779E2,1.3086996E1,1.9441282E1,1.9163443E1,3.421595E0,1.12286625E1,5.897786E0,1.7108012E2,1.1859129E1,1.2278671E0,5.041274E0,1.4400008E1,1.4595754E1,4.567689E0,5.8388414E0,5.3898206E0,1.2314559E0,4.6663303E0,7.967554E1,9.140458E1,3.1076438E0,8.751486E0,2.6548643E0,2.3864098E0,7.3824315E0,7.017576E0,7.7456827E0,6.8500714E0,3.3713052E0,1.1963835E0,2.4698796E0,3.3689618E0,3.1973965E0,2.1924243E0,3.2002754E0,1.4660548E0,6.23223E1,1.735324E1,2.6535255E1,6.486932E1,5.200113E0,3.5513725E0,1.1686542E0,1.2177557E0,1.1911945E0,6.191237E0,3.5932655E0,3.4243107E0,3.1247623E0,4.6209207E0,2.9675004E0,3.8825707E0,1.9215705E0,1.4473912E0,1.4694304E0,1.7279661E0,1.4781508E0,1.7221246E0,1.7400045E1,4.4922256E1,6.6984844E0,1.0654754E1,6.3788433E0,2.0156412E1,1.2693886E1,5.2175438E1,2.4671326E0,2.7329803E0,1.8734317E0,1.6779407E0],"tree_param":{"num_deleted":"0","num_feature":"7","num_nodes":"75","size_leaf_vector":"1"}},{"base_weights":[2.9113758E-4,2.6888165E-1,-1.51999155E-2,-2.820619E-1,4.9012086E-1,-4.010229E-1,8.677104E-3,-5.425203E-2,1.6687501E-2,9.2931546E-2,2.8430364E-1,2.4831377E-2,-6.06241E-1,2.0562872E-1,-2.4137758E-2,-5.27925E-2,6.253203E-1,-3.2550314E-1,4.9379162E-2,-9.138577E-2,-3.3806816E-1,-9.0483E-2,2.8782314E-1,-5.544776E-1,-4.777263E-3,7.3395276E-1,1.8990591E-2,3.9075598E-2,-9.652607E-2,2.7856989E-2,-6.152093E-1,-4.0099826E-1,8.6666785E-2,1.9053867E-1,7.9196924E-1,-1.0656092E-1,-7.8656036E-1,1.5714213E-2,-3.8451853E-1,2.544905E-2,9.381179E-2,-1.1912685E-2,-9.443929E-2,-1.0942707E-2,-8.1691355E-2,-4.89023E-2,2.913485E-2,1.14185095E-1,3.8333756E-3,-1.517868E-2,-1.2142708E-3,-9.277075E-2,-2.4484415E-2,1.135791E-2,-7.5150724E-3,-6.227075E-2,2.1921543E-2],"categories":[],"categories_nodes":[],"categories_segments":[],"categories_sizes":[],"default_left":[0,0,0,0,0,0,0,0,0,0,0,0,0,0,0,0,0,0,0,0,0,0,0,0,0,0,0,0,0,0,0,0,0,0,0,0,0,0,0,0,0,0,0,0,0,0,0,0,0,0,0,0,0,0,0,0,0],"id":14,"left_children":[1,3,5,7,9,11,13,-1,-1,-1,15,17,19,21,23,-1,25,27,-1,-1,29,31,33,35,37,39,-1,-1,-1,-1,41,43,-1,45,47,49,51,53,55,-1,-1,-1,-1,-1,-1,-1,-1,-1,-1,-1,-1,-1,-1,-1,-1,-1,-1],"loss_changes":[1.0177478E0,1.7640696E0,2.1341574E0,6.1160934E-1,6.2907195E-1,1.1948915E0,1.4189627E0,0E0,0E0,0E0,2.5929618E0,1.0398343E0,4.4583964E-1,7.891027E-1,1.9321247E0,0E0,1.5442729E-1,2.0568273E0,0E0,0E0,1.2779794E0,2.5981793E0,1.0644035E0,6.05186E-1,1.4285408E0,2.1372604E-1,0E0,0E0,0E0,0E0,6.6793954E-1,6.8689203E-1,0E0,1.6556298E0,9.295714E-1,1.2755781E-2,9.469509E-2,1.5594507E0,1.4880712E0,0E0,0E0,0E0,0E0,0E0,0E0,0E0,0E0,0E0,0E0,0E0,0E0,0E0,0E0,0E0,0E0,0E0,0E0],"parents":[2147483647,0,0,1,1,2,2,3,3,4,4,5,5,6,6,10,10,11,11,12,12,13,13,14,14,16,16,17,17,20,20,21,21,22,22,23,23,24,24,25,25,30,30,31,31,33,33,34,34,35,35,36,36,37,37,38,38],"right_children":[2,4,6,8,10,12,14,-1,-1,-1,16,18,20,22,24,-1,26,28,-1,-1,30,32,34,36,38,40,-1,-1,-1,-1,42,44,-1,46,48,50,52,54,56,-1,-1,-1,-1,-1,-1,-1,-1,-1,-1,-1,-1,-1,-1,-1,-1,-1,-1],"split_conditions":[8E6,1E0,1E7,3E0,3.1E1,3.4E1,1.6E7,-5.425203E-2,1.6687501E-2,9.2931546E-2,3.8E1,3E0,4.2E1,2E0,1.7E7,-5.27925E-2,1.5E1,1E0,4.9379162E-2,-9.138577E-2,2E0,1.5E7,1.7E1,1E0,1.9E1,4E0,1.8990591E-2,3.9075598E-2,-9.652607E-2,2.7856989E-2,5.2E1,1.4E1,8.6666785E-2,2.4E1,1.9E1,1E1,4E0,1E0,3.7E7,2.544905E-2,9.381179E-2,-1.1912685E-2,-9.443929E-2,-1.0942707E-2,-8.1691355E-2,-4.89023E-2,2.913485E-2,1.14185095E-1,3.8333756E-3,-1.517868E-2,-1.2142708E-3,-9.277075E-2,-2.4484415E-2,1.135791E-2,-7.5150724E-3,-6.227075E-2,2.1921543E-2],"split_indices":[3,6,3,4,0,0,3,0,0,0,0,4,0,4,3,0,2,1,0,0,4,3,2,1,2,2,0,0,0,0,0,2,0,0,2,2,4,5,3,0,0,0,0,0,0,0,0,0,0,0,0,0,0,0,0,0,0],"split_type":[0,0,0,0,0,0,0,0,0,0,0,0,0,0,0,0,0,0,0,0,0,0,0,0,0,0,0,0,0,0,0,0,0,0,0,0,0,0,0,0,0,0,0,0,0,0,0,0,0,0,0,0,0,0,0,0,0],"sum_hessian":[2.4262454E2,1.2338426E1,2.3028612E2,3.4563332E0,8.882092E0,1.2500367E1,2.1778575E2,2.0554016E0,1.4009316E0,1.7125102E0,7.1695824E0,4.3508296E0,8.149537E0,3.0351665E1,1.8743408E2,1.9579867E0,5.2115955E0,2.6654916E0,1.685338E0,2.674241E0,5.475296E0,6.572583E0,2.3779083E1,5.6279755E0,1.818061E2,3.6222348E0,1.5893607E0,1.4411843E0,1.2243072E0,1.6961695E0,3.7791266E0,5.401348E0,1.1712348E0,2.108775E1,2.6913333E0,2.4188256E0,3.2091496E0,1.7340738E2,8.398734E0,1.7526937E0,1.8695412E0,2.0506566E0,1.72847E0,3.9178777E0,1.4834704E0,2.2266812E0,1.8861069E1,1.4862195E0,1.2051138E0,1.2246319E0,1.1941937E0,1.9805679E0,1.2285817E0,8.3367516E1,9.003986E1,6.0001073E0,2.398627E0],"tree_param":{"num_deleted":"0","num_feature":"7","num_nodes":"57","size_leaf_vector":"1"}},{"base_weights":[-2.1503087E-4,-1.0238618E-1,3.749863E-2,-2.588755E-1,4.5238003E-2,-4.1494407E-2,2.372955E-1,-5.667834E-1,1.0346002E-1,3.6586365E-1,-1.2177418E-1,5.0763726E-2,-2.9332602E-1,6.8057793E-1,5.4444116E-2,-1.4981873E-1,-7.886922E-1,-7.365657E-1,3.985668E-1,-4.2059532E-1,7.2645694E-1,1.2701689E-1,-5.16778E-1,-4.1686762E-2,2.519143E-1,-1.888237E-2,-6.9381344E-1,-5.2815336E-3,7.667873E-1,2.7280068E-1,-3.791522E-1,-4.8362318E-1,5.1517326E-2,-2.6185378E-2,-1.0305197E0,-1.1334919E-1,-7.712365E-3,8.5223424E-1,1.3393493E-2,-9.604057E-2,4.00119E-2,1.3465926E-2,8.949483E-1,-2.6428786E-1,4.4837943E-1,-1.00714184E-1,2.439129E-1,1.6842215E-1,-1.5322173E-1,-2.6644865E-1,3.7691805E-1,-6.408713E-1,1.2514713E-1,-8.390155E-1,1.3754404E-2,2.527945E-1,9.0541756E-1,5.70168E-1,-4.6374194E-2,5.3542104E-2,-5.19514E-1,1.5506282E-2,-9.5950894E-2,2.9621614E-2,-3.0661333E-2,-1.2646715E-1,-2.4607696E-2,1.22506574E-1,2.6823735E-2,6.816599E-2,-3.8491514E-2,1.1346292E-1,1.3450518E-2,1.1149885E-2,-5.9480447E-2,6.9289245E-2,-7.102813E-2,6.157704E-2,-3.059331E-2,2.956517E-2,-2.2176621E-2,-4.0661126E-2,1.1552234E-2,4.1042715E-2,-7.036456E-2,6.4365133E-3,7.154908E-2,1.3755267E-2,-1.00525536E-1,2.7110783E-2,-1.0435947E-1,-9.4122455E-2,-2.0649752E-2,-5.8689572E-2,1.0726341E-1,3.757034E-2,1.0755892E-1,1.4104157E-2,8.782586E-2,-1.1250104E-1,1.8987529E-2,-7.050578E-2,4.4467892E-2],"categories":[],"categories_nodes":[],"categories_segments":[],"categories_sizes":[],"default_left":[0,0,0,0,0,0,0,0,0,0,0,0,0,0,0,0,0,0,0,0,0,0,0,0,0,0,0,0,0,0,0,0,0,0,0,0,0,0,0,0,0,0,0,0,0,0,0,0,0,0,0,0,0,0,0,0,0,0,0,0,0,0,0,0,0,0,0,0,0,0,0,0,0,0,0,0,0,0,0,0,0,0,0,0,0,0,0,0,0,0,0,0,0,0,0,0,0,0,0,0,0,0,0],"id":15,"left_children":[1,3,5,7,9,11,13,15,17,19,21,23,25,27,29,31,33,35,37,39,41,43,45,47,49,51,53,-1,55,57,59,61,-1,63,65,-1,-1,67,69,-1,-1,-1,71,73,75,-1,77,79,81,83,85,87,89,91,-1,93,95,97,99,-1,101,-1,-1,-1,-1,-1,-1,-1,-1,-1,-1,-1,-1,-1,-1,-1,-1,-1,-1,-1,-1,-1,-1,-1,-1,-1,-1,-1,-1,-1,-1,-1,-1,-1,-1,-1,-1,-1,-1,-1,-1,-1,-1],"loss_changes":[9.402776E-1,1.5315436E0,2.8228772E0,3.638164E0,1.902932E0,3.0023901E0,4.0684423E0,1.5010133E0,4.1570773E0,3.74716E0,2.3818326E0,1.776451E0,3.7924926E0,9.702115E-1,3.6014404E0,1.8724174E0,2.0357509E0,1.0650303E0,2.1173177E0,2.355051E0,7.4573135E-1,2.037898E0,3.7166944E0,1.5705518E0,2.0471945E0,2.0128284E0,1.8115773E0,0E0,7.1328163E-1,2.4138086E0,1.9203705E0,1.7853832E0,0E0,4.271145E-1,1.2439823E0,0E0,0E0,8.8585806E-1,2.2865045E0,0E0,0E0,0E0,1.0475988E0,9.9932873E-1,2.9715405E0,0E0,1.0987344E0,1.2239628E0,3.014862E0,2.1896222E0,2.5593512E0,1.3351551E0,3.41386E0,5.8806896E-1,0E0,3.5181472E0,4.9970055E-1,1.6076517E0,3.5408022E0,0E0,2.3884299E0,0E0,0E0,0E0,0E0,0E0,0E0,0E0,0E0,0E0,0E0,0E0,0E0,0E0,0E0,0E0,0E0,0E0,0E0,0E0,0E0,0E0,0E0,0E0,0E0,0E0,0E0,0E0,0E0,0E0,0E0,0E0,0E0,0E0,0E0,0E0,0E0,0E0,0E0,0E0,0E0,0E0,0E0],"parents":[2147483647,0,0,1,1,2,2,3,3,4,4,5,5,6,6,7,7,8,8,9,9,10,10,11,11,12,12,13,13,14,14,15,15,16,16,17,17,18,18,19,19,20,20,21,21,22,22,23,23,24,24,25,25,26,26,28,28,29,29,30,30,31,31,33,33,34,34,37,37,38,38,42,42,43,43,44,44,46,46,47,47,48,48,49,49,50,50,51,51,52,52,53,53,55,55,56,56,57,57,58,58,60,60],"right_children":[2,4,6,8,10,12,14,16,18,20,22,24,26,28,30,32,34,36,38,40,42,44,46,48,50,52,54,-1,56,58,60,62,-1,64,66,-1,-1,68,70,-1,-1,-1,72,74,76,-1,78,80,82,84,86,88,90,92,-1,94,96,98,100,-1,102,-1,-1,-1,-1,-1,-1,-1,-1,-1,-1,-1,-1,-1,-1,-1,-1,-1,-1,-1,-1,-1,-1,-1,-1,-1,-1,-1,-1,-1,-1,-1,-1,-1,-1,-1,-1,-1,-1,-1,-1,-1,-1],"split_conditions":[2E0,9E0,3.7E7,4.5E1,3.4E1,2.9E7,4.1E7,3E1,1E0,2.4E1,3.1E7,4.8E1,4.6E1,2.3E1,1.2E1,3.9E7,1E0,2.6E7,4.9E1,2.8E7,1.5E7,1.9E7,4.9E1,3E0,1E7,2.4E1,1.7E1,-5.2815336E-3,1E0,1E0,2.4E1,2.3E7,5.1517326E-2,3.8E1,4E1,-1.1334919E-1,-7.712365E-3,1E0,2E0,-9.604057E-2,4.00119E-2,1.3465926E-2,3.2E1,1E0,1.9E1,-1.00714184E-1,1.3E1,1.5E1,4E0,8E6,1E1,2E0,1.8E1,5.8E1,1.3754404E-2,3.9E1,3E0,5E0,4.2E7,5.3542104E-2,5.2E1,1.5506282E-2,-9.5950894E-2,2.9621614E-2,-3.0661333E-2,-1.2646715E-1,-2.4607696E-2,1.22506574E-1,2.6823735E-2,6.816599E-2,-3.8491514E-2,1.1346292E-1,1.3450518E-2,1.1149885E-2,-5.9480447E-2,6.9289245E-2,-7.102813E-2,6.157704E-2,-3.059331E-2,2.956517E-2,-2.2176621E-2,-4.0661126E-2,1.1552234E-2,4.1042715E-2,-7.036456E-2,6.4365133E-3,7.154908E-2,1.3755267E-2,-1.00525536E-1,2.7110783E-2,-1.0435947E-1,-9.4122455E-2,-2.0649752E-2,-5.8689572E-2,1.0726341E-1,3.757034E-2,1.0755892E-1,1.4104157E-2,8.782586E-2,-1.1250104E-1,1.8987529E-2,-7.050578E-2,4.4467892E-2],"split_indices":[4,2,3,0,0,3,3,0,6,0,3,0,0,0,2,3,6,3,0,3,3,3,0,4,3,0,2,0,6,5,0,3,0,0,0,0,0,1,2,0,0,0,0,5,2,0,2,2,4,3,2,6,2,0,0,0,4,2,3,0,0,0,0,0,0,0,0,0,0,0,0,0,0,0,0,0,0,0,0,0,0,0,0,0,0,0,0,0,0,0,0,0,0,0,0,0,0,0,0,0,0,0,0],"split_type":[0,0,0,0,0,0,0,0,0,0,0,0,0,0,0,0,0,0,0,0,0,0,0,0,0,0,0,0,0,0,0,0,0,0,0,0,0,0,0,0,0,0,0,0,0,0,0,0,0,0,0,0,0,0,0,0,0,0,0,0,0,0,0,0,0,0,0,0,0,0,0,0,0,0,0,0,0,0,0,0,0,0,0,0,0,0,0,0,0,0,0,0,0,0,0,0,0,0,0,0,0,0,0],"sum_hessian":[2.420257E2,6.478905E1,1.7723666E2,3.1084375E1,3.370467E1,1.2758579E2,4.9650864E1,1.6499266E1,1.4585109E1,1.1135803E1,2.2568867E1,9.396154E1,3.362425E1,1.3704742E1,3.594612E1,6.312765E0,1.0186501E1,3.4028676E0,1.1182241E1,3.448399E0,7.687404E0,1.4263511E1,8.305356E0,6.491762E1,2.9043922E1,2.057315E1,1.3051099E1,1.4822686E0,1.2222473E1,2.4153435E1,1.1792687E1,4.3845844E0,1.9281809E0,2.7196016E0,7.4668984E0,1.6754994E0,1.7273681E0,4.577794E0,6.604448E0,1.9775159E0,1.4708831E0,2.1023734E0,5.5850306E0,6.5119205E0,7.7515903E0,4.8529916E0,3.4523644E0,2.233432E1,4.25833E1,5.423274E0,2.362065E1,3.2196338E0,1.7353518E1,1.1102723E1,1.9483755E0,3.196071E0,9.026402E0,1.2096783E1,1.2056652E1,1.1945605E0,1.0598127E1,2.1599185E0,2.2246659E0,1.2389311E0,1.4806707E0,5.278966E0,2.1879327E0,2.1240473E0,2.4537466E0,2.2007427E0,4.403705E0,3.8724318E0,1.7125987E0,3.3573616E0,3.154559E0,6.7327595E0,1.0188308E0,1.9879975E0,1.4643668E0,1.7025171E1,5.3091497E0,2.1653734E1,2.0929567E1,2.1522908E0,3.2709832E0,1.2901113E1,1.0719536E1,1.2250656E0,1.9945682E0,1.6109663E1,1.2438534E0,9.1380415E0,1.9646814E0,1.7192879E0,1.476783E0,2.9746463E0,6.0517564E0,5.6645966E0,6.432186E0,1.4903326E0,1.0566319E1,9.113194E0,1.4849328E0],"tree_param":{"num_deleted":"0","num_feature":"7","num_nodes":"103","size_leaf_vector":"1"}},{"base_weights":[-9.2983514E-4,1.1555938E-1,-3.386563E-2,-2.1799402E-2,4.5614445E-1,-5.165195E-1,-1.3678326E-2,-2.6202607E-1,2.2452272E-1,8.58026E-2,2.7439088E-1,-1.05808534E-1,-2.1404245E-1,1.3813197E-2,-3.706627E-1,3.0497107E-1,-3.7580925E-1,2.1061629E-2,7.524449E-1,6.292323E-1,-1.4804469E-1,-6.0027534E-1,3.263003E-2,1.0278748E-1,-7.061046E-2,-5.284102E-1,6.373037E-2,-1.7281024E-2,8.136122E-2,6.186416E-2,-5.912404E-1,-2.6146835E-1,3.33539E-1,9.0969004E-2,9.949408E-3,1.2472515E-2,8.87662E-1,-6.8226886E-1,5.9984017E-2,-9.077872E-3,-7.911798E-2,-2.7330863E-1,2.1014582E-1,2.6086724E-1,-1.289187E-1,-1.5920942E-1,-7.6515317E-1,1.0292133E-1,-3.4923784E-2,1.5318818E-2,-6.9293745E-2,3.19739E-2,-6.38547E-2,-4.7835838E-2,9.347189E-2,1.1108016E-1,2.6169006E-2,-1.0296899E-1,-1.1968524E-2,9.381144E-3,-6.2683985E-2,6.200428E-2,1.4292735E-2,7.607526E-2,-3.2336008E-2,-3.241757E-2,-7.9958997E-4,-5.6743927E-2,5.401037E-2,-1.1933668E-1,-2.433165E-2],"categories":[],"categories_nodes":[],"categories_segments":[],"categories_sizes":[],"default_left":[0,0,0,0,0,0,0,0,0,0,0,0,0,0,0,0,0,0,0,0,0,0,0,0,0,0,0,0,0,0,0,0,0,0,0,0,0,0,0,0,0,0,0,0,0,0,0,0,0,0,0,0,0,0,0,0,0,0,0,0,0,0,0,0,0,0,0,0,0,0,0],"id":16,"left_children":[1,3,5,7,9,11,13,15,17,-1,19,-1,21,23,25,27,29,31,33,35,37,39,-1,41,43,45,-1,-1,-1,47,49,51,53,-1,-1,-1,55,57,-1,-1,-1,59,61,63,65,67,69,-1,-1,-1,-1,-1,-1,-1,-1,-1,-1,-1,-1,-1,-1,-1,-1,-1,-1,-1,-1,-1,-1,-1,-1],"loss_changes":[9.3232507E-1,2.5157933E0,1.8385451E0,2.373942E0,8.9232993E-1,1.0147791E0,1.799546E0,1.4222417E0,2.1168795E0,0E0,1.9071605E0,0E0,1.4721565E0,1.2897232E0,2.4212854E0,1.0980153E0,1.6705065E0,1.4433321E0,4.7365856E-1,7.716272E-1,2.9399884E0,3.0930734E-1,0E0,3.4302626E0,1.7383406E0,9.167814E-1,0E0,0E0,0E0,2.992627E0,9.924922E-1,2.094992E0,4.221729E0,0E0,0E0,0E0,3.1156135E-1,6.903788E-1,0E0,0E0,0E0,2.5227718E0,1.7174208E0,4.1957965E0,1.7841715E0,1.9923142E0,1.2687564E0,0E0,0E0,0E0,0E0,0E0,0E0,0E0,0E0,0E0,0E0,0E0,0E0,0E0,0E0,0E0,0E0,0E0,0E0,0E0,0E0,0E0,0E0,0E0,0E0],"parents":[2147483647,0,0,1,1,2,2,3,3,4,4,5,5,6,6,7,7,8,8,10,10,12,12,13,13,14,14,15,15,16,16,17,17,18,18,19,19,20,20,21,21,23,23,24,24,25,25,29,29,30,30,31,31,32,32,36,36,37,37,41,41,42,42,43,43,44,44,45,45,46,46],"right_children":[2,4,6,8,10,12,14,16,18,-1,20,-1,22,24,26,28,30,32,34,36,38,40,-1,42,44,46,-1,-1,-1,48,50,52,54,-1,-1,-1,56,58,-1,-1,-1,60,62,64,66,68,70,-1,-1,-1,-1,-1,-1,-1,-1,-1,-1,-1,-1,-1,-1,-1,-1,-1,-1,-1,-1,-1,-1,-1,-1],"split_conditions":[2.9E1,3.9E7,3E1,2.4E1,2E0,3E0,4.7E7,1.1E7,3E0,8.58026E-2,2.4E1,-1.05808534E-1,2E0,1E0,5.4E1,2E0,1E0,1E0,1.3E1,4.5E7,4E0,2.2E7,3.263003E-2,4E0,2E0,1E0,6.373037E-2,-1.7281024E-2,8.136122E-2,2.1E1,2E0,1.8E7,1.5E7,9.0969004E-2,9.949408E-3,1.2472515E-2,2E0,2E0,5.9984017E-2,-9.077872E-3,-7.911798E-2,2.6E7,6E0,4.8E1,9E0,4.4E1,2E0,1.0292133E-1,-3.4923784E-2,1.5318818E-2,-6.9293745E-2,3.19739E-2,-6.38547E-2,-4.7835838E-2,9.347189E-2,1.1108016E-1,2.6169006E-2,-1.0296899E-1,-1.1968524E-2,9.381144E-3,-6.2683985E-2,6.200428E-2,1.4292735E-2,7.607526E-2,-3.2336008E-2,-3.241757E-2,-7.9958997E-4,-5.6743927E-2,5.401037E-2,-1.1933668E-1,-2.433165E-2],"split_indices":[0,3,0,0,4,2,3,3,6,0,0,0,6,5,0,6,6,1,2,3,4,3,0,2,2,1,0,0,0,0,2,3,3,0,0,0,6,6,0,0,0,3,2,0,2,0,4,0,0,0,0,0,0,0,0,0,0,0,0,0,0,0,0,0,0,0,0,0,0,0,0],"split_type":[0,0,0,0,0,0,0,0,0,0,0,0,0,0,0,0,0,0,0,0,0,0,0,0,0,0,0,0,0,0,0,0,0,0,0,0,0,0,0,0,0,0,0,0,0,0,0,0,0,0,0,0,0,0,0,0,0,0,0,0,0,0,0,0,0,0,0,0,0,0,0],"sum_hessian":[2.4098404E2,5.2564007E1,1.8842003E2,3.8124355E1,1.4439651E1,6.5773454E0,1.8184268E2,1.9268713E1,1.8855644E1,3.33802E0,1.110163E1,1.4618782E0,5.115467E0,1.6973279E2,1.2109891E1,2.9396677E0,1.6329046E1,1.4360865E1,4.494779E0,5.7674766E0,5.3341537E0,2.918459E0,2.1970081E0,8.253327E1,8.719952E1,1.0882532E1,1.2273586E0,1.8562703E0,1.0833973E0,5.621385E0,1.070766E1,7.62756E0,6.7333045E0,3.3055344E0,1.1892447E0,2.4558287E0,3.311648E0,3.1627178E0,2.171436E0,1.1976427E0,1.7208163E0,1.7984495E1,6.4548775E1,1.2524546E1,7.467497E1,4.905266E0,5.977266E0,1.2280822E0,4.393303E0,1.2261133E0,9.481546E0,3.0612257E0,4.5663347E0,2.9515362E0,3.7817686E0,1.8703892E0,1.4412587E0,1.4419562E0,1.7207617E0,9.183083E0,8.801414E0,7.9352818E0,5.6613495E1,6.586637E0,5.937909E0,2.7916569E1,4.6758404E1,3.2163E0,1.6889658E0,2.5763128E0,3.4009533E0],"tree_param":{"num_deleted":"0","num_feature":"7","num_nodes":"71","size_leaf_vector":"1"}},{"base_weights":[-1.5173349E-4,1.2173206E-1,-3.0156506E-2,-2.1880431E-2,4.761094E-1,4.9970686E-2,-1.07752554E-1,-4.4929612E-1,1.1937317E-1,6.2437457E-1,-2.4418974E-2,-1.9575468E-1,1.2163826E-1,2.1568856E-1,-1.6099541E-1,-7.611323E-1,-1.4983876E-1,-1.3582505E-1,4.052993E-1,-1.8105254E-2,7.5548625E-1,1.4321934E-1,-4.9443087E-1,-2.0114832E-1,2.1268319E-1,6.0881776E-1,-2.9530206E-1,-2.5295323E-1,4.4443354E-2,-1.1725873E-2,-9.7411714E-2,-4.6452484E-1,5.8935322E-2,5.4710157E-2,-2.6579362E-1,6.159601E-1,-6.35598E-2,2.0977974E-2,8.7170774E-1,-1.9602667E-1,7.6033175E-1,-9.3400484E-1,3.0098759E-2,2.0098032E-2,-8.43766E-1,5.712832E-2,4.0546143E-1,1.7708504E-1,1.1732425E-1,-9.5863074E-2,2.1081139E-1,-4.9559218E-1,-9.621527E-2,1.4449406E-1,-5.411136E-1,-7.1588665E-2,1.4487517E-2,9.887895E-3,-5.7980802E-2,3.2187056E-2,1.19358554E-1,-7.9329E-2,6.2245667E-2,1.20024435E-1,5.5443283E-2,1.1124945E-2,-7.429426E-2,2.8705006E-3,1.1576078E-1,-1.0614516E-1,-2.7729277E-2,3.976429E-2,-4.590642E-2,-1.995111E-2,9.059769E-2,-1.2257177E-1,-1.3995822E-2,3.0724352E-2,-1.8627191E-2,4.9213313E-2,-4.9377173E-2,-6.2351294E-2,5.631424E-2,8.443059E-2,-2.7288193E-2,-7.8000776E-3,-7.9067014E-2,4.555982E-2,-2.0982837E-2,-2.6434472E-2,4.157771E-2,2.0067124E-2,-9.160834E-2],"categories":[],"categories_nodes":[],"categories_segments":[],"categories_sizes":[],"default_left":[0,0,0,0,0,0,0,0,0,0,0,0,0,0,0,0,0,0,0,0,0,0,0,0,0,0,0,0,0,0,0,0,0,0,0,0,0,0,0,0,0,0,0,0,0,0,0,0,0,0,0,0,0,0,0,0,0,0,0,0,0,0,0,0,0,0,0,0,0,0,0,0,0,0,0,0,0,0,0,0,0,0,0,0,0,0,0,0,0,0,0,0,0],"id":17,"left_children":[1,3,5,7,9,11,13,15,17,19,-1,21,23,25,27,29,31,33,35,-1,37,39,41,43,45,47,49,51,53,-1,-1,55,-1,-1,57,59,61,-1,63,65,67,69,71,73,75,77,79,81,-1,-1,83,85,87,89,91,-1,-1,-1,-1,-1,-1,-1,-1,-1,-1,-1,-1,-1,-1,-1,-1,-1,-1,-1,-1,-1,-1,-1,-1,-1,-1,-1,-1,-1,-1,-1,-1,-1,-1,-1,-1,-1,-1],"loss_changes":[8.8567024E-1,2.4452066E0,1.2136631E0,2.1667657E0,1.63058E0,1.7195401E0,1.7403345E0,7.1740913E-1,2.032248E0,1.3785591E0,0E0,2.3108974E0,2.251731E0,3.0779047E0,1.6286767E0,4.5031524E-1,1.6199486E0,1.4827273E0,1.326134E0,0E0,4.7078514E-1,2.4810517E0,2.79186E0,2.4411528E0,1.749532E0,1.8587267E0,2.534137E0,2.2072442E0,1.6789676E0,0E0,0E0,8.1115615E-1,0E0,0E0,1.5838807E0,1.1589694E0,2.9697766E0,0E0,1.8717194E-1,1.424195E0,1.1748357E0,2.5409603E-1,1.3392993E0,2.8383503E0,1.0086064E0,2.11976E0,2.2876754E0,2.200251E0,0E0,0E0,1.688899E0,2.775971E0,2.4317698E0,2.7857208E0,1.351527E0,0E0,0E0,0E0,0E0,0E0,0E0,0E0,0E0,0E0,0E0,0E0,0E0,0E0,0E0,0E0,0E0,0E0,0E0,0E0,0E0,0E0,0E0,0E0,0E0,0E0,0E0,0E0,0E0,0E0,0E0,0E0,0E0,0E0,0E0,0E0,0E0,0E0,0E0],"parents":[2147483647,0,0,1,1,2,2,3,3,4,4,5,5,6,6,7,7,8,8,9,9,11,11,12,12,13,13,14,14,15,15,16,16,17,17,18,18,20,20,21,21,22,22,23,23,24,24,25,25,26,26,27,27,28,28,31,31,34,34,35,35,36,36,38,38,39,39,40,40,41,41,42,42,43,43,44,44,45,45,46,46,47,47,50,50,51,51,52,52,53,53,54,54],"right_children":[2,4,6,8,10,12,14,16,18,20,-1,22,24,26,28,30,32,34,36,-1,38,40,42,44,46,48,50,52,54,-1,-1,56,-1,-1,58,60,62,-1,64,66,68,70,72,74,76,78,80,82,-1,-1,84,86,88,90,92,-1,-1,-1,-1,-1,-1,-1,-1,-1,-1,-1,-1,-1,-1,-1,-1,-1,-1,-1,-1,-1,-1,-1,-1,-1,-1,-1,-1,-1,-1,-1,-1,-1,-1,-1,-1,-1,-1],"split_conditions":[2.8E1,3.9E7,1E0,2E0,1.6E1,4E0,2E0,1E0,2.4E1,2.1E1,-2.4418974E-2,2.6E7,3.6E1,4.8E1,5E1,1E0,3E0,1.1E7,1.4E1,-1.8105254E-2,5E0,2E7,4.1E7,3.4E1,2E0,4.2E1,1E0,9E0,5.9E1,-1.1725873E-2,-9.7411714E-2,2.6E1,5.8935322E-2,5.4710157E-2,2E0,2.2E7,1E0,2.0977974E-2,4.3E7,3E0,3E0,3E0,3E0,3.3E1,1.3E1,1E0,1.9E1,2E0,1.1732425E-1,-9.5863074E-2,1.5E7,5E0,1.3E7,2.2E7,2.7E7,-7.1588665E-2,1.4487517E-2,9.887895E-3,-5.7980802E-2,3.2187056E-2,1.19358554E-1,-7.9329E-2,6.2245667E-2,1.20024435E-1,5.5443283E-2,1.1124945E-2,-7.429426E-2,2.8705006E-3,1.1576078E-1,-1.0614516E-1,-2.7729277E-2,3.976429E-2,-4.590642E-2,-1.995111E-2,9.059769E-2,-1.2257177E-1,-1.3995822E-2,3.0724352E-2,-1.8627191E-2,4.9213313E-2,-4.9377173E-2,-6.2351294E-2,5.631424E-2,8.443059E-2,-2.7288193E-2,-7.8000776E-3,-7.9067014E-2,4.555982E-2,-2.0982837E-2,-2.6434472E-2,4.157771E-2,2.0067124E-2,-9.160834E-2],"split_indices":[0,3,5,4,2,2,2,5,0,0,0,3,0,0,0,6,6,3,2,0,2,3,3,0,6,0,6,2,0,0,0,0,0,0,6,3,1,0,3,2,4,6,4,0,2,6,2,4,0,0,3,2,3,3,3,0,0,0,0,0,0,0,0,0,0,0,0,0,0,0,0,0,0,0,0,0,0,0,0,0,0,0,0,0,0,0,0,0,0,0,0,0,0],"split_type":[0,0,0,0,0,0,0,0,0,0,0,0,0,0,0,0,0,0,0,0,0,0,0,0,0,0,0,0,0,0,0,0,0,0,0,0,0,0,0,0,0,0,0,0,0,0,0,0,0,0,0,0,0,0,0,0,0,0,0,0,0,0,0,0,0,0,0,0,0,0,0,0,0,0,0,0,0,0,0,0,0,0,0,0,0,0,0,0,0,0,0,0,0],"sum_hessian":[2.4017476E2,4.684132E1,1.9333344E2,3.4000694E1,1.2840629E1,9.529056E1,9.804287E1,7.9038525E0,2.6096842E1,1.0759154E1,2.0814738E0,2.1125725E1,7.416483E1,1.3426736E1,8.4616135E1,3.116656E0,4.787196E0,1.4066767E1,1.2030074E1,1.4529132E0,9.306242E0,1.0139113E1,1.0986611E1,1.6050562E1,5.8114273E1,7.480324E0,5.946412E0,5.829226E1,2.6323877E1,1.1601032E0,1.956553E0,3.6183732E0,1.168823E0,1.7358997E0,1.2330867E1,8.084103E0,3.9459717E0,2.126495E0,7.1797466E0,6.982799E0,3.1563146E0,5.552648E0,5.433964E0,1.2660436E1,3.3901267E0,3.2879658E1,2.5234612E1,4.982736E0,2.497588E0,2.1865485E0,3.7598639E0,2.2028706E1,3.6263554E1,2.3125751E1,3.1981254E0,2.4380145E0,1.1803585E0,6.022224E0,6.308643E0,6.388646E0,1.6954563E0,1.8362948E0,2.1096768E0,2.160049E0,5.0196977E0,4.98093E0,2.0018692E0,1.4880903E0,1.6682243E0,4.1340504E0,1.4185976E0,3.2095146E0,2.2244492E0,1.0766268E1,1.8941675E0,1.7168516E0,1.6732752E0,1.6086779E1,1.6792881E1,2.3429138E1,1.8054746E0,1.4209404E0,3.5617955E0,1.3050702E0,2.4547937E0,9.644395E0,1.2384312E1,5.6776047E0,3.0585947E1,9.2344675E0,1.3891284E1,1.2299019E0,1.9682236E0],"tree_param":{"num_deleted":"0","num_feature":"7","num_nodes":"93","size_leaf_vector":"1"}},{"base_weights":[-1.1355574E-4,2.3312666E-1,-1.4957614E-2,-6.2273514E-1,5.4837775E-1,3.285897E-3,-2.269286E-1,-1.01704955E-1,-8.3941715E-3,9.890723E-2,8.620023E-2,-1.5877891E-2,4.9120876E-1,-3.2082087E-1,5.850572E-2,-3.3967316E-1,7.213056E-2,-1.8687531E-1,1.9259978E-2,8.9616E-2,2.556058E-1,2.1764185E-1,-5.381656E-1,1.8505149E-2,-6.997561E-2,1.61628E-1,-5.0767833E-1,-4.066185E-2,1.8716624E-1,-6.67215E-2,6.001626E-1,-3.26086E-1,1.03260495E-1,-9.306247E-2,-3.1317186E-1,-3.132713E-2,3.708635E-2,-8.375948E-2,-2.3110395E-2,-2.0459464E-3,-6.616868E-2,2.8237743E-2,-3.13091E-2,7.690099E-2,1.6535766E-2,2.8010422E-2,-7.46759E-2,4.9656085E-3,-7.334303E-2],"categories":[],"categories_nodes":[],"categories_segments":[],"categories_sizes":[],"default_left":[0,0,0,0,0,0,0,0,0,0,0,0,0,0,0,0,0,0,0,0,0,0,0,0,0,0,0,0,0,0,0,0,0,0,0,0,0,0,0,0,0,0,0,0,0,0,0,0,0],"id":18,"left_children":[1,3,5,7,9,11,13,-1,-1,15,-1,17,19,21,-1,23,-1,25,27,-1,29,31,33,-1,-1,35,37,39,41,-1,43,45,-1,-1,47,-1,-1,-1,-1,-1,-1,-1,-1,-1,-1,-1,-1,-1,-1],"loss_changes":[8.354542E-1,4.2371545E0,8.780331E-1,8.3984995E-1,1.4771307E0,1.970156E0,1.559387E0,0E0,0E0,1.796807E0,0E0,1.2227508E0,5.306313E-1,2.0800989E0,0E0,8.880503E-1,0E0,3.959385E0,1.7102188E0,0E0,2.445874E0,2.7895417E0,7.891419E-1,0E0,0E0,1.8432763E0,1.4761906E0,1.5614802E0,2.2168427E0,0E0,2.5536883E-1,1.2496531E0,0E0,0E0,1.4522889E0,0E0,0E0,0E0,0E0,0E0,0E0,0E0,0E0,0E0,0E0,0E0,0E0,0E0,0E0],"parents":[2147483647,0,0,1,1,2,2,3,3,4,4,5,5,6,6,9,9,11,11,12,12,13,13,15,15,17,17,18,18,20,20,21,21,22,22,25,25,26,26,27,27,28,28,30,30,31,31,34,34],"right_children":[2,4,6,8,10,12,14,-1,-1,16,-1,18,20,22,-1,24,-1,26,28,-1,30,32,34,-1,-1,36,38,40,42,-1,44,46,-1,-1,48,-1,-1,-1,-1,-1,-1,-1,-1,-1,-1,-1,-1,-1,-1],"split_conditions":[1E0,1E0,4.7E7,2E0,4.1E1,4.6E7,5.4E1,-1.01704955E-1,-8.3941715E-3,3E0,8.620023E-2,4E0,2.4E1,2.9E1,5.850572E-2,3.2E1,7.213056E-2,2.6E7,3.5E7,8.9616E-2,3.2E1,1E0,1E0,1.8505149E-2,-6.997561E-2,1.3E7,1E0,3.4E7,4.4E7,-6.67215E-2,5.5E1,9E0,1.03260495E-1,-9.306247E-2,1.1E1,-3.132713E-2,3.708635E-2,-8.375948E-2,-2.3110395E-2,-2.0459464E-3,-6.616868E-2,2.8237743E-2,-3.13091E-2,7.690099E-2,1.6535766E-2,2.8010422E-2,-7.46759E-2,4.9656085E-3,-7.334303E-2],"split_indices":[2,6,3,4,0,3,0,0,0,6,0,2,0,0,0,0,0,3,3,0,0,1,6,0,0,3,5,3,3,0,0,2,0,0,2,0,0,0,0,0,0,0,0,0,0,0,0,0,0],"split_type":[0,0,0,0,0,0,0,0,0,0,0,0,0,0,0,0,0,0,0,0,0,0,0,0,0,0,0,0,0,0,0,0,0,0,0,0,0,0,0,0,0,0,0,0,0,0,0,0,0],"sum_hessian":[2.3929797E2,1.343846E1,2.2585951E2,3.3549328E0,1.0083528E1,2.088676E2,1.6991915E1,1.4246582E0,1.9302746E0,4.6848335E0,5.398694E0,2.0190498E2,6.9626155E0,1.5772939E1,1.2189766E0,3.0147238E0,1.6701096E0,3.3680664E1,1.6822432E2,1.5297002E0,5.432915E0,4.5353727E0,1.1237566E1,1.4246961E0,1.5900277E0,1.638119E1,1.7299475E1,1.2453759E2,4.368673E1,1.2224374E0,4.210478E0,3.0801988E0,1.4551737E0,2.9520495E0,8.285517E0,4.857947E0,1.1523242E1,6.9639487E0,1.0335526E1,1.21614334E2,2.9232569E0,3.706743E1,6.6193023E0,2.4791286E0,1.7313491E0,1.3987503E0,1.6814486E0,4.9198413E0,3.3656752E0],"tree_param":{"num_deleted":"0","num_feature":"7","num_nodes":"49","size_leaf_vector":"1"}},{"base_weights":[-5.5632973E-4,2.4054043E-1,-1.4203651E-2,-9.376226E-2,5.35259E-1,-3.5582173E-1,6.7214817E-3,1.1487803E-1,-5.191958E-2,1.4222207E-2,7.969447E-2,3.075144E-2,-5.460267E-1,1.7705682E-1,-2.167617E-2,-2.5037873E-1,6.5916024E-2,-2.3606313E-2,2.8345747E-2,-2.9607213E-1,4.6283033E-2,-8.556922E-2,-2.845107E-1,-6.257379E-2,2.7066872E-1,-5.210257E-1,-3.3674943E-3,1.793123E-2,-5.915305E-2,3.6111783E-2,-8.919743E-2,2.5328591E-2,-5.3521764E-1,-3.081319E-1,2.5901973E-1,1.6189164E-2,3.9651683E-1,-6.317917E-2,-7.6667064E-1,1.5785651E-2,-3.6409065E-1,-6.313735E-3,-8.727085E-2,-2.6146432E-3,-6.285388E-2,7.498842E-2,-2.7079925E-2,3.4936514E-2,-8.1389055E-2,6.662798E-2,5.4829707E-3,-1.1591382E-2,1.9653246E-3,-9.085776E-2,-2.3150928E-2,3.0402949E-3,-3.8402047E-2,1.8194815E-3,-6.994705E-2],"categories":[],"categories_nodes":[],"categories_segments":[],"categories_sizes":[],"default_left":[0,0,0,0,0,0,0,0,0,0,0,0,0,0,0,0,0,0,0,0,0,0,0,0,0,0,0,0,0,0,0,0,0,0,0,0,0,0,0,0,0,0,0,0,0,0,0,0,0,0,0,0,0,0,0,0,0,0,0],"id":19,"left_children":[1,3,5,7,9,11,13,15,-1,17,-1,19,21,23,25,27,-1,-1,-1,29,-1,-1,31,33,35,37,39,-1,-1,-1,-1,-1,41,43,45,47,49,51,53,55,57,-1,-1,-1,-1,-1,-1,-1,-1,-1,-1,-1,-1,-1,-1,-1,-1,-1,-1],"loss_changes":[7.919768E-1,1.3206697E0,1.6305499E0,6.7145795E-1,9.4341445E-1,9.847604E-1,1.046725E0,1.2472225E0,0E0,2.9327783E-1,0E0,8.837682E-1,4.753964E-1,7.1047556E-1,1.6958452E0,6.8981797E-1,0E0,0E0,0E0,1.7400001E0,0E0,0E0,9.8641133E-1,8.298046E-1,7.1159244E-1,6.894411E-1,1.2502133E0,0E0,0E0,0E0,0E0,0E0,6.8181837E-1,5.1138407E-1,1.4137613E0,2.6243818E0,1.3422766E0,1.7045487E-2,1.07105255E-1,1.0168557E0,1.1824257E0,0E0,0E0,0E0,0E0,0E0,0E0,0E0,0E0,0E0,0E0,0E0,0E0,0E0,0E0,0E0,0E0,0E0,0E0],"parents":[2147483647,0,0,1,1,2,2,3,3,4,4,5,5,6,6,7,7,9,9,11,11,12,12,13,13,14,14,15,15,19,19,22,22,23,23,24,24,25,25,26,26,32,32,33,33,34,34,35,35,36,36,37,37,38,38,39,39,40,40],"right_children":[2,4,6,8,10,12,14,16,-1,18,-1,20,22,24,26,28,-1,-1,-1,30,-1,-1,32,34,36,38,40,-1,-1,-1,-1,-1,42,44,46,48,50,52,54,56,58,-1,-1,-1,-1,-1,-1,-1,-1,-1,-1,-1,-1,-1,-1,-1,-1,-1,-1],"split_conditions":[8E6,2E0,1E7,1.2E1,6E6,3.4E1,1.6E7,9E0,-5.191958E-2,1.3E1,7.969447E-2,3E0,4.2E1,1E0,1.7E7,1E0,6.5916024E-2,-2.3606313E-2,2.8345747E-2,1E0,4.6283033E-2,-8.556922E-2,2E0,1E0,3.1E1,1E0,1.9E1,1.793123E-2,-5.915305E-2,3.6111783E-2,-8.919743E-2,2.5328591E-2,5.2E1,1.4E1,4.4E1,2.8E1,1.1E1,1E1,4E0,5.9E1,2E0,-6.313735E-3,-8.727085E-2,-2.6146432E-3,-6.285388E-2,7.498842E-2,-2.7079925E-2,3.4936514E-2,-8.1389055E-2,6.662798E-2,5.4829707E-3,-1.1591382E-2,1.9653246E-3,-9.085776E-2,-2.3150928E-2,3.0402949E-3,-3.8402047E-2,1.8194815E-3,-6.994705E-2],"split_indices":[3,6,3,2,3,0,3,2,0,2,0,4,0,6,3,1,0,0,0,1,0,0,4,5,0,1,2,0,0,0,0,0,0,2,0,0,2,2,4,0,6,0,0,0,0,0,0,0,0,0,0,0,0,0,0,0,0,0,0],"split_type":[0,0,0,0,0,0,0,0,0,0,0,0,0,0,0,0,0,0,0,0,0,0,0,0,0,0,0,0,0,0,0,0,0,0,0,0,0,0,0,0,0,0,0,0,0,0,0,0,0,0,0,0,0,0,0,0,0,0,0],"sum_hessian":[2.386603E2,1.18949995E1,2.2676529E2,5.8927E0,6.0022993E0,1.2164612E1,2.1460068E2,4.443501E0,1.449199E0,2.3592315E0,3.6430676E0,4.2879972E0,7.8766146E0,2.9917007E1,1.8468367E2,2.9821944E0,1.4613067E0,1.2864945E0,1.0727371E0,2.620574E0,1.6674236E0,2.5660574E0,5.3105574E0,8.497193E0,2.1419815E1,5.5608053E0,1.7912286E2,1.5297806E0,1.4524138E0,1.4335659E0,1.1870081E0,1.685236E0,3.6253211E0,4.841922E0,3.6552713E0,7.461147E0,1.3958668E1,2.3807082E0,3.180097E0,1.7099962E2,8.123246E0,2.0061746E0,1.6191467E0,3.150668E0,1.6912537E0,1.6817819E0,1.9734894E0,5.737398E0,1.7237487E0,7.2694473E0,6.6892204E0,1.2106068E0,1.1701015E0,1.9620607E0,1.2180364E0,1.6585959E2,5.14003E0,4.2381287E0,3.8851175E0],"tree_param":{"num_deleted":"0","num_feature":"7","num_nodes":"59","size_leaf_vector":"1"}},{"base_weights":[-1.8534159E-3,-3.2692075E-2,9.5038526E-2,2.5171494E-1,-4.9611516E-2,-6.529547E-2,2.2966295E-1,-1.8239382E-1,5.4859054E-1,-1.005973E-1,5.787618E-2,3.35528E-1,-2.633342E-1,-3.4425023E-1,2.9418415E-1,-6.610338E-2,3.1626254E-2,8.743771E-1,-8.241491E-3,-2.2129734E-1,1.7553842E-2,6.294923E-1,-3.3474196E-2,6.3410586E-1,-6.699636E-2,-4.4118452E-1,1.2231835E-1,-6.2345207E-2,9.309462E-3,5.0801224E-1,8.293464E-2,2.9409781E-2,1.0054504E-1,1.224795E-1,-4.199109E-1,7.970869E-2,-5.1009285E-1,1.1699494E-1,2.2092642E-1,4.256093E-1,-2.0285176E-1,9.663527E-2,3.8039353E-1,-1.3704073E-1,-8.523838E-1,3.731365E-1,-5.6229908E-2,9.294456E-1,-9.0921246E-2,-5.970002E-1,4.0682933E-1,-9.438319E-3,7.3378906E-2,-2.5607863E-2,-9.499688E-2,-1.9692264E-2,2.5836637E-2,2.2135433E-2,-7.202709E-2,7.505939E-2,-6.750653E-2,-5.206417E-3,6.964445E-2,-8.320741E-2,-3.9692647E-3,-4.5852482E-2,6.791924E-2,-5.210659E-2,5.9766006E-2,-3.423778E-2,-1.23080015E-1,-5.776294E-3,5.7494428E-2,1.9900214E-2,1.0243837E-1,-4.471154E-2,2.4685688E-2,3.5066586E-2,-9.161702E-2,5.354287E-2,-2.0910421E-2],"categories":[],"categories_nodes":[],"categories_segments":[],"categories_sizes":[],"default_left":[0,0,0,0,0,0,0,0,0,0,0,0,0,0,0,0,0,0,0,0,0,0,0,0,0,0,0,0,0,0,0,0,0,0,0,0,0,0,0,0,0,0,0,0,0,0,0,0,0,0,0,0,0,0,0,0,0,0,0,0,0,0,0,0,0,0,0,0,0,0,0,0,0,0,0,0,0,0,0,0,0],"id":20,"left_children":[1,3,5,7,9,11,13,15,17,19,21,23,25,27,29,-1,-1,31,-1,33,35,37,39,41,-1,43,45,-1,-1,47,49,-1,-1,51,53,55,57,-1,59,61,63,-1,65,67,69,71,-1,73,75,77,79,-1,-1,-1,-1,-1,-1,-1,-1,-1,-1,-1,-1,-1,-1,-1,-1,-1,-1,-1,-1,-1,-1,-1,-1,-1,-1,-1,-1,-1,-1],"loss_changes":[7.1740884E-1,8.886733E-1,1.2663214E0,1.4389019E0,9.522474E-1,2.2504902E0,1.276372E0,1.3951913E0,1.3916303E0,1.6795143E0,2.955473E0,3.26104E0,1.342815E0,5.059165E-1,1.2708185E0,0E0,0E0,3.2833338E-2,0E0,4.02497E0,2.0183356E0,1.4624822E0,3.9277709E0,2.897327E-1,0E0,1.5186949E0,1.3626518E0,0E0,0E0,3.6813138E0,3.72607E0,0E0,0E0,2.9969983E0,2.9795084E0,2.7598507E0,1.1571705E0,0E0,3.1981425E0,1.8005202E0,3.7413845E0,0E0,1.833158E0,2.7685583E0,6.1470556E-1,5.127588E-1,0E0,3.8236666E-1,9.280771E-1,1.9874265E0,1.0076351E0,0E0,0E0,0E0,0E0,0E0,0E0,0E0,0E0,0E0,0E0,0E0,0E0,0E0,0E0,0E0,0E0,0E0,0E0,0E0,0E0,0E0,0E0,0E0,0E0,0E0,0E0,0E0,0E0,0E0,0E0],"parents":[2147483647,0,0,1,1,2,2,3,3,4,4,5,5,6,6,7,7,8,8,9,9,10,10,11,11,12,12,13,13,14,14,17,17,19,19,20,20,21,21,22,22,23,23,25,25,26,26,29,29,30,30,33,33,34,34,35,35,36,36,38,38,39,39,40,40,42,42,43,43,44,44,45,45,47,47,48,48,49,49,50,50],"right_children":[2,4,6,8,10,12,14,16,18,20,22,24,26,28,30,-1,-1,32,-1,34,36,38,40,42,-1,44,46,-1,-1,48,50,-1,-1,52,54,56,58,-1,60,62,64,-1,66,68,70,72,-1,74,76,78,80,-1,-1,-1,-1,-1,-1,-1,-1,-1,-1,-1,-1,-1,-1,-1,-1,-1,-1,-1,-1,-1,-1,-1,-1,-1,-1,-1,-1,-1,-1],"split_conditions":[4E0,8E6,1E0,3.8E1,3.7E7,7E0,1E7,1E1,5E1,1E1,2.4E1,5.2E1,1.7E1,2E0,1E0,-6.610338E-2,3.1626254E-2,3E0,-8.241491E-3,1.9E7,1.9E1,1E0,4.1E7,1.8E7,-6.699636E-2,4E1,4.1E7,-6.2345207E-2,9.309462E-3,3E7,2.4E7,2.9409781E-2,1.0054504E-1,1.7E7,8E0,1.9E7,1.2E7,1.1699494E-1,8E0,2E0,1E0,9.663527E-2,2.3E7,3.5E1,1.4E1,4.5E1,-5.6229908E-2,2.3E1,3.5E7,3E0,4.5E7,-9.438319E-3,7.3378906E-2,-2.5607863E-2,-9.499688E-2,-1.9692264E-2,2.5836637E-2,2.2135433E-2,-7.202709E-2,7.505939E-2,-6.750653E-2,-5.206417E-3,6.964445E-2,-8.320741E-2,-3.9692647E-3,-4.5852482E-2,6.791924E-2,-5.210659E-2,5.9766006E-2,-3.423778E-2,-1.23080015E-1,-5.776294E-3,5.7494428E-2,1.9900214E-2,1.0243837E-1,-4.471154E-2,2.4685688E-2,3.5066586E-2,-9.161702E-2,5.354287E-2,-2.0910421E-2],"split_indices":[4,3,1,0,3,2,3,2,0,2,0,0,2,6,5,0,0,2,0,3,2,6,3,3,0,0,3,0,0,3,3,0,0,3,2,3,3,0,2,4,6,0,3,0,2,0,0,0,3,2,3,0,0,0,0,0,0,0,0,0,0,0,0,0,0,0,0,0,0,0,0,0,0,0,0,0,0,0,0,0,0],"split_type":[0,0,0,0,0,0,0,0,0,0,0,0,0,0,0,0,0,0,0,0,0,0,0,0,0,0,0,0,0,0,0,0,0,0,0,0,0,0,0,0,0,0,0,0,0,0,0,0,0,0,0,0,0,0,0,0,0,0,0,0,0,0,0,0,0,0,0,0,0,0,0,0,0,0,0,0,0,0,0,0,0],"sum_hessian":[2.3805542E2,1.8108308E2,5.6972332E1,9.388586E0,1.716945E2,2.6238264E1,3.073407E1,3.9696114E0,5.418975E0,1.164986E2,5.519591E1,8.447191E0,1.7791073E1,2.6678858E0,2.8066183E1,1.8593078E0,2.1103034E0,3.3194582E0,2.0995166E0,5.7195847E1,5.930275E1,6.793745E0,4.8402164E1,6.797924E0,1.649267E0,1.2077384E1,5.7136884E0,1.3686181E0,1.2992676E0,1.3249828E1,1.4816355E1,1.2093347E0,2.1101234E0,2.1084454E1,3.6111393E1,5.381274E1,5.490008E0,2.1225078E0,4.6712375E0,1.2637234E1,3.576493E1,1.7272143E0,5.0707097E0,7.7088213E0,4.368563E0,4.514658E0,1.1990305E0,7.4534497E0,5.7963786E0,4.5085673E0,1.0307788E1,1.618752E1,4.896934E0,2.8718184E1,7.3932095E0,2.1076271E1,3.273647E1,1.2135428E0,4.276465E0,3.0377443E0,1.6334933E0,4.8648453E0,7.772388E0,6.520167E0,2.9244764E1,1.1913295E0,3.8793802E0,5.2535763E0,2.4552448E0,2.6720734E0,1.6964897E0,1.667656E0,2.847002E0,1.2134465E0,6.240003E0,2.6637268E0,3.1326518E0,1.1110383E0,3.397529E0,8.635504E0,1.6722836E0],"tree_param":{"num_deleted":"0","num_feature":"7","num_nodes":"81","size_leaf_vector":"1"}},{"base_weights":[-1.57806E-3,2.1062303E-1,-1.4980165E-2,-5.77634E-1,5.036764E-1,-4.6755284E-2,8.4635414E-2,-9.665873E-2,-6.2034214E-3,8.601496E-2,7.9572275E-2,-2.4143243E-2,-4.325739E-1,3.0041253E-2,4.9951428E-1,-3.3130786E-1,6.786029E-2,-9.0795234E-2,1.0796087E-1,4.4017696E-1,-8.655825E-1,9.8288275E-2,-5.493755E-1,5.3458855E-2,1.0884116E-1,1.5720371E-2,-6.6240616E-2,-5.4513272E-2,-9.201621E-1,4.6759315E-2,5.321741E-1,-2.2087488E-2,8.107807E-2,-4.0764425E-2,-1.0005941E-1,2.9680827E-1,-5.5863783E-2,-1.947544E-2,-7.276829E-2,-4.268657E-2,6.0554888E-2,3.966645E-3,-2.290193E-2,-2.0014886E-2,-1.115885E-1,1.214747E-2,-4.0840965E-2,-2.3166332E-2,1.1652698E-1,-4.3606736E-2,3.733899E-2,2.7237004E-2,-3.2418385E-2],"categories":[],"categories_nodes":[],"categories_segments":[],"categories_sizes":[],"default_left":[0,0,0,0,0,0,0,0,0,0,0,0,0,0,0,0,0,0,0,0,0,0,0,0,0,0,0,0,0,0,0,0,0,0,0,0,0,0,0,0,0,0,0,0,0,0,0,0,0,0,0,0,0],"id":21,"left_children":[1,3,5,7,9,11,13,-1,-1,15,-1,17,19,21,23,25,-1,27,29,31,33,35,37,39,-1,-1,-1,41,43,45,47,-1,-1,-1,-1,49,51,-1,-1,-1,-1,-1,-1,-1,-1,-1,-1,-1,-1,-1,-1,-1,-1],"loss_changes":[6.798685E-1,3.571605E0,7.153487E-1,8.053396E-1,1.2595332E0,1.4817271E0,1.2241282E0,0E0,0E0,1.6100274E0,0E0,1.4417512E0,3.937193E0,2.0078442E0,1.596154E0,7.4442184E-1,0E0,3.2187896E0,1.4028916E0,1.1059802E0,1.8239021E-3,1.395268E0,1.9709468E-1,1.4876661E0,0E0,0E0,0E0,1.737135E0,4.094379E-1,1.7213287E0,3.5763643E0,0E0,0E0,0E0,0E0,1.2769247E0,2.3958976E0,0E0,0E0,0E0,0E0,0E0,0E0,0E0,0E0,0E0,0E0,0E0,0E0,0E0,0E0,0E0,0E0],"parents":[2147483647,0,0,1,1,2,2,3,3,4,4,5,5,6,6,9,9,11,11,12,12,13,13,14,14,15,15,17,17,18,18,19,19,20,20,21,21,22,22,23,23,27,27,28,28,29,29,30,30,35,35,36,36],"right_children":[2,4,6,8,10,12,14,-1,-1,16,-1,18,20,22,24,26,-1,28,30,32,34,36,38,40,-1,-1,-1,42,44,46,48,-1,-1,-1,-1,50,52,-1,-1,-1,-1,-1,-1,-1,-1,-1,-1,-1,-1,-1,-1,-1,-1],"split_conditions":[1E0,1E0,4E0,2E0,4.1E1,5.8E1,5.6E1,-9.665873E-2,-6.2034214E-3,3E0,7.9572275E-2,4.5E1,2E7,5.2E1,3.5E7,3.2E1,6.786029E-2,4.4E1,4.6E7,5.9E1,5.9E1,1E1,2.7E7,8E0,1.0884116E-1,1.5720371E-2,-6.6240616E-2,3E0,1E0,4.1E7,5.1E1,-2.2087488E-2,8.107807E-2,-4.0764425E-2,-1.0005941E-1,9E6,1E0,-1.947544E-2,-7.276829E-2,-4.268657E-2,6.0554888E-2,3.966645E-3,-2.290193E-2,-2.0014886E-2,-1.115885E-1,1.214747E-2,-4.0840965E-2,-2.3166332E-2,1.1652698E-1,-4.3606736E-2,3.733899E-2,2.7237004E-2,-3.2418385E-2],"split_indices":[2,6,4,4,0,0,0,0,0,6,0,0,3,0,3,0,0,0,3,0,0,2,3,2,0,0,0,4,5,3,0,0,0,0,0,3,5,0,0,0,0,0,0,0,0,0,0,0,0,0,0,0,0],"split_type":[0,0,0,0,0,0,0,0,0,0,0,0,0,0,0,0,0,0,0,0,0,0,0,0,0,0,0,0,0,0,0,0,0,0,0,0,0,0,0,0,0,0,0,0,0,0,0,0,0,0,0,0,0],"sum_hessian":[2.3694911E2,1.3201923E1,2.237472E2,3.3147633E0,9.88716E0,1.7003918E2,5.370801E1,1.3908567E0,1.9239066E0,4.601288E0,5.2858725E0,1.6162901E2,8.410169E0,4.8410107E1,5.297906E0,2.9586256E0,1.6426623E0,1.0763527E2,5.3993748E1,2.783443E0,5.626726E0,4.40518E1,4.3583064E0,3.6352177E0,1.662688E0,1.4073653E0,1.5512601E0,1.04145004E2,3.4902594E0,4.8156414E1,5.837335E0,1.1450363E0,1.6384066E0,2.1963563E0,3.4303696E0,1.885043E1,2.520137E1,2.1582263E0,2.2000802E0,2.0652475E0,1.5699701E0,6.814195E1,3.6003056E1,1.1782823E0,2.3119771E0,4.1995953E1,6.160459E0,2.9328709E0,2.9044645E0,1.3393062E0,1.7511124E1,1.132837E1,1.3872999E1],"tree_param":{"num_deleted":"0","num_feature":"7","num_nodes":"53","size_leaf_vector":"1"}},{"base_weights":[-2.0390777E-3,2.1789509E-1,-1.4319114E-2,-9.215118E-2,4.9458632E-1,-5.2732205E-1,-1.8271768E-3,2.5535592E-1,-3.4115058E-1,6.3311127E-3,7.4638283E-1,-7.628898E-2,-6.149534E-4,1.1375486E-2,-2.672498E-1,-1.2500003E-2,4.850795E-2,3.864641E-2,-7.311642E-2,-2.156586E-2,2.511922E-2,3.2135393E-2,9.265537E-2,-7.786903E-2,4.3705963E-2,-4.140339E-1,1.8167362E-1,-5.1172413E-2,5.4808117E-2,-2.0544973E-1,1.07144766E-1,-2.4559945E-2,2.000796E-1,1.6558923E-2,-6.6839206E-1,4.257312E-2,-1.34389E-2,-4.9607616E-2,1.1773155E-2,-2.027028E-2,2.371511E-2,6.747456E-3,-2.4692023E-2,5.607983E-2,8.2513075E-3,-9.699888E-2,-2.3258379E-2],"categories":[],"categories_nodes":[],"categories_segments":[],"categories_sizes":[],"default_left":[0,0,0,0,0,0,0,0,0,0,0,0,0,0,0,0,0,0,0,0,0,0,0,0,0,0,0,0,0,0,0,0,0,0,0,0,0,0,0,0,0,0,0,0,0,0,0],"id":22,"left_children":[1,3,5,7,9,11,13,15,17,19,21,-1,-1,23,25,-1,-1,27,-1,-1,-1,-1,-1,29,31,33,35,-1,-1,37,39,41,43,-1,45,-1,-1,-1,-1,-1,-1,-1,-1,-1,-1,-1,-1],"loss_changes":[6.441748E-1,1.1276678E0,1.4456927E0,6.747554E-1,8.34031E-1,6.537131E-1,7.7882177E-1,3.5830843E-1,6.7771065E-1,2.351702E-1,4.6281815E-2,0E0,0E0,6.1465764E-1,7.6915485E-1,0E0,0E0,1.16958E0,0E0,0E0,0E0,0E0,0E0,1.360295E0,1.6718464E0,1.3256751E0,3.1098738E-1,0E0,0E0,3.242427E0,1.006673E0,2.2594056E0,1.970792E0,0E0,5.533211E-1,0E0,0E0,0E0,0E0,0E0,0E0,0E0,0E0,0E0,0E0,0E0,0E0],"parents":[2147483647,0,0,1,1,2,2,3,3,4,4,5,5,6,6,7,7,8,8,9,9,10,10,13,13,14,14,17,17,23,23,24,24,25,25,26,26,29,29,30,30,31,31,32,32,34,34],"right_children":[2,4,6,8,10,12,14,16,18,20,22,-1,-1,24,26,-1,-1,28,-1,-1,-1,-1,-1,30,32,34,36,-1,-1,38,40,42,44,-1,46,-1,-1,-1,-1,-1,-1,-1,-1,-1,-1,-1,-1],"split_conditions":[8E6,2E0,9E6,6E6,6E6,1E0,1.9E1,3.7E1,1.2E1,1.3E1,1E1,-7.628898E-2,-6.149534E-4,2E0,3.7E7,-1.2500003E-2,4.850795E-2,6E0,-7.311642E-2,-2.156586E-2,2.511922E-2,3.2135393E-2,9.265537E-2,4.5E1,3.7E7,1.8E7,4.3E7,-5.1172413E-2,5.4808117E-2,1.1E1,1E0,2.9E7,4E7,1.6558923E-2,2.8E7,4.257312E-2,-1.34389E-2,-4.9607616E-2,1.1773155E-2,-2.027028E-2,2.371511E-2,6.747456E-3,-2.4692023E-2,5.607983E-2,8.2513075E-3,-9.699888E-2,-2.3258379E-2],"split_indices":[3,6,3,3,3,1,2,0,2,2,2,0,0,4,3,0,0,2,0,0,0,0,0,0,3,3,3,0,0,2,6,3,3,0,3,0,0,0,0,0,0,0,0,0,0,0,0],"split_type":[0,0,0,0,0,0,0,0,0,0,0,0,0,0,0,0,0,0,0,0,0,0,0,0,0,0,0,0,0,0,0,0,0,0,0,0,0,0,0,0,0,0,0,0,0,0,0],"sum_hessian":[2.3635739E2,1.1613684E1,2.247437E2,5.791251E0,5.822432E0,4.3628473E0,2.2038086E2,2.4067826E0,3.3844686E0,2.3298314E0,3.4926007E0,2.6853058E0,1.6775416E0,2.108499E2,9.530962E0,1.0779221E0,1.3288605E0,2.1711264E0,1.2133423E0,1.284538E0,1.0452933E0,1.8684567E0,1.6241438E0,5.569681E1,1.5515308E2,7.241073E0,2.289889E0,1.0414723E0,1.1296539E0,3.2899628E1,2.2797186E1,1.08590256E2,4.6562828E1,2.3149142E0,4.926159E0,1.0963356E0,1.1935534E0,1.7040596E1,1.5859032E1,6.5728235E0,1.6224361E1,7.7294685E1,3.1295572E1,1.0518826E1,3.6044003E1,2.186967E0,2.7391918E0],"tree_param":{"num_deleted":"0","num_feature":"7","num_nodes":"47","size_leaf_vector":"1"}},{"base_weights":[-2.0445974E-3,1.05271794E-1,-2.8436512E-2,-1.7743768E-2,4.1089827E-1,6.3386904E-3,-1.5972483E-1,-4.0450734E-1,1.1091909E-1,5.449792E-1,-2.3745827E-2,-3.7768986E-2,3.949545E-1,-3.1570125E-1,5.2883416E-1,-6.981469E-1,-1.2592003E-1,-1.2418569E-1,3.75804E-1,-1.9793224E-2,6.7013067E-1,1.806286E-2,-2.7078414E-1,4.724497E-2,6.414332E-1,-5.0540406E-1,1.4991544E-1,8.99369E-1,-6.4060554E-2,-9.709544E-3,-8.980521E-2,-4.2137837E-1,5.5718858E-2,5.3642806E-2,-2.5027674E-1,5.031262E-1,-1.773514E-2,1.3116046E-2,7.9241085E-1,-9.319611E-3,5.1623994E-1,7.314655E-3,-6.7098874E-1,-3.1823108E-1,7.4359946E-2,1.15598105E-1,-2.8500906E-3,-3.0977088E-1,-1.1198467E0,1.06410585E-1,-2.699485E-1,1.2877351E-1,1.9147728E-1,-6.5779015E-2,1.4198355E-2,8.098813E-3,-5.350819E-2,2.6309028E-2,1.1216805E-1,1.11045234E-1,4.931322E-2,1.992975E-3,-5.2333493E-2,1.0955801E-1,-6.1625885E-3,-1.366926E-2,8.308557E-2,-1.0484513E-1,-3.7409574E-2,-7.313379E-2,1.6001413E-2,-4.7602825E-2,6.1064538E-2,-4.847127E-2,3.6293544E-2,-1.3416037E-1,-2.06665E-2,1.5637023E-2,-7.1031444E-2,5.853453E-2,-2.8012102E-2],"categories":[],"categories_nodes":[],"categories_segments":[],"categories_sizes":[],"default_left":[0,0,0,0,0,0,0,0,0,0,0,0,0,0,0,0,0,0,0,0,0,0,0,0,0,0,0,0,0,0,0,0,0,0,0,0,0,0,0,0,0,0,0,0,0,0,0,0,0,0,0,0,0,0,0,0,0,0,0,0,0,0,0,0,0,0,0,0,0,0,0,0,0,0,0,0,0,0,0,0,0],"id":23,"left_children":[1,3,5,7,9,11,13,15,17,19,-1,21,23,25,27,29,31,33,35,-1,37,39,41,43,45,47,49,51,-1,-1,-1,53,-1,-1,55,57,-1,-1,59,61,63,65,67,69,-1,-1,71,73,75,-1,77,-1,79,-1,-1,-1,-1,-1,-1,-1,-1,-1,-1,-1,-1,-1,-1,-1,-1,-1,-1,-1,-1,-1,-1,-1,-1,-1,-1,-1,-1],"loss_changes":[6.736659E-1,1.7725508E0,8.7232167E-1,1.7584839E0,1.3044047E0,2.617609E0,4.463175E0,6.3289046E-1,1.7047521E0,1.2021968E0,0E0,1.790809E0,1.3036163E0,3.0118716E0,3.9394817E0,4.0179205E-1,1.3936131E0,1.3718034E0,9.884604E-1,0E0,5.5993414E-1,1.5282638E0,2.9650526E0,2.1545289E0,2.996395E0,2.5196223E0,4.2767544E0,1.488244E0,0E0,0E0,0E0,7.0304155E-1,0E0,0E0,1.284701E0,1.2846086E0,0E0,0E0,2.1500158E-1,1.6167719E0,2.0214305E0,2.0919447E0,8.3101416E-1,1.2317696E0,0E0,0E0,1.7440149E0,2.4672632E0,8.1152487E-1,0E0,1.5979831E0,0E0,7.973962E-1,0E0,0E0,0E0,0E0,0E0,0E0,0E0,0E0,0E0,0E0,0E0,0E0,0E0,0E0,0E0,0E0,0E0,0E0,0E0,0E0,0E0,0E0,0E0,0E0,0E0,0E0,0E0,0E0],"parents":[2147483647,0,0,1,1,2,2,3,3,4,4,5,5,6,6,7,7,8,8,9,9,11,11,12,12,13,13,14,14,15,15,16,16,17,17,18,18,20,20,21,21,22,22,23,23,24,24,25,25,26,26,27,27,31,31,34,34,35,35,38,38,39,39,40,40,41,41,42,42,43,43,46,46,47,47,48,48,50,50,52,52],"right_children":[2,4,6,8,10,12,14,16,18,20,-1,22,24,26,28,30,32,34,36,-1,38,40,42,44,46,48,50,52,-1,-1,-1,54,-1,-1,56,58,-1,-1,60,62,64,66,68,70,-1,-1,72,74,76,-1,78,-1,80,-1,-1,-1,-1,-1,-1,-1,-1,-1,-1,-1,-1,-1,-1,-1,-1,-1,-1,-1,-1,-1,-1,-1,-1,-1,-1,-1,-1],"split_conditions":[2.8E1,3.9E7,4.1E7,2E0,1.6E1,3.7E7,5.3E1,1E0,2.4E1,2.1E1,-2.3745827E-2,3.1E7,1E0,3E0,5.8E1,1E0,3E0,1.1E7,1.6E1,-1.9793224E-2,5E0,3E7,4.6E1,1.2E1,3.9E7,4.8E1,4.3E7,1E0,-6.4060554E-2,-9.709544E-3,-8.980521E-2,2.6E1,5.5718858E-2,5.3642806E-2,2E0,2.6E7,-1.773514E-2,1.3116046E-2,4.3E7,2.9E7,1E0,4.1E1,4E0,3.9E1,7.4359946E-2,1.15598105E-1,5.2E1,4E0,2E0,1.06410585E-1,3E0,1.2877351E-1,5.5E1,-6.5779015E-2,1.4198355E-2,8.098813E-3,-5.350819E-2,2.6309028E-2,1.1216805E-1,1.11045234E-1,4.931322E-2,1.992975E-3,-5.2333493E-2,1.0955801E-1,-6.1625885E-3,-1.366926E-2,8.308557E-2,-1.0484513E-1,-3.7409574E-2,-7.313379E-2,1.6001413E-2,-4.7602825E-2,6.1064538E-2,-4.847127E-2,3.6293544E-2,-1.3416037E-1,-2.06665E-2,1.5637023E-2,-7.1031444E-2,5.853453E-2,-2.8012102E-2],"split_indices":[0,3,3,4,2,3,0,5,0,0,0,3,1,6,0,6,6,3,2,0,2,3,0,2,3,0,3,5,0,0,0,0,0,0,6,3,0,0,3,3,1,0,2,0,0,0,0,4,6,0,4,0,0,0,0,0,0,0,0,0,0,0,0,0,0,0,0,0,0,0,0,0,0,0,0,0,0,0,0,0,0],"split_type":[0,0,0,0,0,0,0,0,0,0,0,0,0,0,0,0,0,0,0,0,0,0,0,0,0,0,0,0,0,0,0,0,0,0,0,0,0,0,0,0,0,0,0,0,0,0,0,0,0,0,0,0,0,0,0,0,0,0,0,0,0,0,0,0,0,0,0,0,0,0,0,0,0,0,0,0,0,0,0,0,0],"sum_hessian":[2.3579552E2,4.595238E1,1.8984314E2,3.343617E1,1.2516213E1,1.5084068E2,3.9002445E1,7.811296E0,2.562487E1,1.0503518E1,2.0126956E0,1.3627623E2,1.4564463E1,3.224062E1,6.761829E0,3.0697062E0,4.7415895E0,1.3856968E1,1.1767903E1,1.4304833E0,9.073034E0,1.1067928E2,2.5596945E1,6.5358977E0,8.028565E0,2.2846844E1,9.393774E0,5.3102317E0,1.451597E0,1.1369541E0,1.9327521E0,3.577426E0,1.1641637E0,1.6993701E0,1.2157598E1,9.639565E0,2.1283376E0,2.0610843E0,7.01195E0,1.0584288E2,4.836397E0,1.5681633E1,9.915312E0,4.6423836E0,1.8935138E0,4.022133E0,4.0064325E0,1.8470234E1,4.3766103E0,2.4735608E0,6.9202127E0,2.9000711E0,2.4101605E0,2.4018762E0,1.1755496E0,5.951212E0,6.206385E0,7.9714856E0,1.66808E0,2.0853899E0,4.9265604E0,1.0105378E2,4.7891035E0,1.9677347E0,2.8686628E0,1.4057507E1,1.6241262E0,3.2508495E0,6.6644626E0,2.206878E0,2.4355059E0,2.3883853E0,1.6180471E0,1.4880038E1,3.5901957E0,3.1439753E0,1.2326351E0,3.843868E0,3.076345E0,1.1818839E0,1.2282766E0],"tree_param":{"num_deleted":"0","num_feature":"7","num_nodes":"81","size_leaf_vector":"1"}},{"base_weights":[-6.884244E-4,1.9902045E-1,-1.31537225E-2,-5.281125E-1,4.7087398E-1,2.588651E-3,-1.9827795E-1,-9.0362184E-2,-4.580969E-3,8.928017E-2,7.355467E-1,-1.4513762E-2,4.4047E-1,-3.8996702E-1,2.0400746E-1,-2.9596406E-1,6.3211195E-2,1.0131847E-1,4.382013E-1,-1.6041446E-1,1.5140257E-2,8.406009E-2,2.1641155E-1,-3.148386E-2,-6.5599966E-1,7.573485E-2,-2.004658E-1,1.448019E-2,-5.9985604E-2,6.6112384E-2,5.9967428E-3,1.4235203E-1,-4.401289E-1,2.4766448E-1,-1.4962E-2,-6.2698975E-2,5.377139E-1,4.326806E-1,-6.166805E-2,-1.7457251E-1,-9.268615E-2,5.4748315E-2,-9.462752E-2,-2.8138235E-2,3.264566E-2,-9.4641395E-2,-2.739248E-2,-2.1767652E-2,6.30746E-2,-1.6747884E-2,3.0722225E-3,6.911545E-2,1.4152624E-2,1.0668793E-2,6.1483115E-2,-6.1876584E-2,4.3690037E-2],"categories":[],"categories_nodes":[],"categories_segments":[],"categories_sizes":[],"default_left":[0,0,0,0,0,0,0,0,0,0,0,0,0,0,0,0,0,0,0,0,0,0,0,0,0,0,0,0,0,0,0,0,0,0,0,0,0,0,0,0,0,0,0,0,0,0,0,0,0,0,0,0,0,0,0,0,0],"id":24,"left_children":[1,3,5,7,9,11,13,-1,-1,15,17,19,21,23,25,27,-1,-1,29,31,33,-1,35,37,39,-1,41,-1,-1,-1,-1,43,45,47,49,-1,51,53,-1,55,-1,-1,-1,-1,-1,-1,-1,-1,-1,-1,-1,-1,-1,-1,-1,-1,-1],"loss_changes":[5.89952E-1,3.0008888E0,6.5042466E-1,7.301694E-1,1.0112467E0,1.5529673E0,1.4283166E0,0E0,0E0,1.3383048E0,6.437445E-2,8.6653805E-1,5.169003E-1,1.1418283E0,1.5620894E0,6.093776E-1,0E0,0E0,3.596351E-1,2.927031E0,1.1719241E0,0E0,2.0561266E0,1.9625647E0,7.4402404E-1,0E0,2.9897728E0,0E0,0E0,0E0,0E0,1.4178708E0,1.2406666E0,3.557655E0,1.041321E0,0E0,2.1415329E-1,1.7602932E-1,0E0,1.2843088E0,0E0,0E0,0E0,0E0,0E0,0E0,0E0,0E0,0E0,0E0,0E0,0E0,0E0,0E0,0E0,0E0,0E0],"parents":[2147483647,0,0,1,1,2,2,3,3,4,4,5,5,6,6,9,9,10,10,11,11,12,12,13,13,14,14,15,15,18,18,19,19,20,20,22,22,23,23,24,24,26,26,31,31,32,32,33,33,34,34,36,36,37,37,39,39],"right_children":[2,4,6,8,10,12,14,-1,-1,16,18,20,22,24,26,28,-1,-1,30,32,34,-1,36,38,40,-1,42,-1,-1,-1,-1,44,46,48,50,-1,52,54,-1,56,-1,-1,-1,-1,-1,-1,-1,-1,-1,-1,-1,-1,-1,-1,-1,-1,-1],"split_conditions":[1E0,1E0,4.7E7,2E0,4.1E1,4.6E7,4.9E7,-9.0362184E-2,-4.580969E-3,3E0,2E0,4E0,2.4E1,1E1,2.9E1,3.2E1,6.3211195E-2,1.0131847E-1,1E0,2.6E7,6E0,8.406009E-2,3.2E1,1E0,3.4E1,7.573485E-2,1E0,1.448019E-2,-5.9985604E-2,6.6112384E-2,5.9967428E-3,1.3E7,3E7,2.6E7,9E0,-6.2698975E-2,5.5E1,4.4E1,-6.166805E-2,1E0,-9.268615E-2,5.4748315E-2,-9.462752E-2,-2.8138235E-2,3.264566E-2,-9.4641395E-2,-2.739248E-2,-2.1767652E-2,6.30746E-2,-1.6747884E-2,3.0722225E-3,6.911545E-2,1.4152624E-2,1.0668793E-2,6.1483115E-2,-6.1876584E-2,4.3690037E-2],"split_indices":[2,6,3,4,0,3,3,0,0,6,6,2,0,2,0,0,0,0,1,3,2,0,0,5,0,0,1,0,0,0,0,3,3,3,2,0,0,0,0,1,0,0,0,0,0,0,0,0,0,0,0,0,0,0,0,0,0],"split_type":[0,0,0,0,0,0,0,0,0,0,0,0,0,0,0,0,0,0,0,0,0,0,0,0,0,0,0,0,0,0,0,0,0,0,0,0,0,0,0,0,0,0,0,0,0,0,0,0,0,0,0,0,0,0,0,0,0],"sum_hessian":[2.3493112E2,1.2923021E1,2.2200809E2,3.2602143E0,9.6628065E0,2.0551755E2,1.649054E1,